<?xml version="1.0"?>
<opencv_storage>
<opencv_ml_ann_mlp>
  <format>3</format>
  <layer_sizes>
    128 128 128 128 31</layer_sizes>
  <activation_function>SIGMOID_SYM</activation_function>
  <f_param1>1.</f_param1>
  <f_param2>1.</f_param2>
  <min_val>-9.4999999999999996e-01</min_val>
  <max_val>9.4999999999999996e-01</max_val>
  <min_val1>-9.7999999999999998e-01</min_val1>
  <max_val1>9.7999999999999998e-01</max_val1>
  <training_params>
    <train_method>BACKPROP</train_method>
    <dw_scale>1.0000000000000000e-03</dw_scale>
    <moment_scale>1.0000000000000001e-01</moment_scale>
    <term_criteria>
      <epsilon>1.0000000000000000e-04</epsilon>
      <iterations>10000</iterations></term_criteria></training_params>
  <input_scale>
    2.4570279910507149e-02 -2.0420438892589945e+00
    1.7752822257072427e-02 -2.1369702089692364e+00
    1.8505389778198798e-02 -2.3894756229667649e+00
    1.6126905563640364e-02 -2.2201026510771489e+00
    1.7915945714195011e-02 -2.5276162973825955e+00
    1.9963238642690135e-02 -2.5568658463381495e+00
    1.8205275574399955e-02 -1.7553056895273227e+00
    3.0829832667167233e-02 -1.8318887668684531e+00
    2.3598009238411290e-02 -2.1518948501896809e+00
    1.6138257326843576e-02 -2.3996339231545933e+00
    1.6142597697342054e-02 -2.5177036826690626e+00
    1.4669252483147849e-02 -2.2750023154251693e+00
    1.5841312933680633e-02 -2.5796607193319105e+00
    1.7608349577290065e-02 -2.8842931016622479e+00
    1.7566494667241229e-02 -2.2130269981790502e+00
    2.7421582991309448e-02 -1.7755032703276235e+00
    2.4965995959334623e-02 -2.2566361070288385e+00
    1.5384302898381273e-02 -2.3316350219219570e+00
    1.8791843232363468e-02 -2.4753707044953619e+00
    1.8808583818546897e-02 -1.9995102093242070e+00
    1.8607197876908396e-02 -2.2332959124055032e+00
    1.6855007135825252e-02 -2.5073834841198206e+00
    1.6170750041090521e-02 -2.1758004998836347e+00
    2.6740647269007451e-02 -1.8093929584345172e+00
    2.3942023315304008e-02 -2.1579640705082981e+00
    1.4222571943441415e-02 -2.1399281746101955e+00
    2.0008716746303751e-02 -2.2434935012412001e+00
    1.6536640498238827e-02 -1.3513102487141484e+00
    1.6119985969041357e-02 -1.4788267128179586e+00
    1.6854048668572773e-02 -2.1095723407362161e+00
    1.3973290584850672e-02 -1.8678683501471840e+00
    2.4100788524595795e-02 -1.7309808274197593e+00
    2.4719021609698966e-02 -2.1588796086117217e+00
    1.4130144267039551e-02 -2.1202874027129850e+00
    1.9953961074672105e-02 -2.1951159475397675e+00
    1.5525187331359987e-02 -1.3180783881825717e+00
    1.5082943174064877e-02 -1.3545553372729064e+00
    1.7907130042731235e-02 -1.9723837268034130e+00
    1.3485665969386006e-02 -1.7045185750931298e+00
    2.2861708876687536e-02 -1.6554974619537326e+00
    2.6065433421490515e-02 -2.1720914244431113e+00
    1.3944234347437254e-02 -2.0990031056191696e+00
    1.9666804516721051e-02 -2.2903833657563548e+00
    1.5453838890714911e-02 -1.4528303494440675e+00
    1.5420863026193363e-02 -1.5017930798734762e+00
    1.8121945341872010e-02 -1.9889127302145528e+00
    1.3053310580040355e-02 -1.5888236993304217e+00
    2.2853545542725468e-02 -1.6084177910740876e+00
    2.7738198344225563e-02 -2.1651900759147424e+00
    1.4043912456405549e-02 -2.1184653002223470e+00
    1.7879388173836882e-02 -2.3102937941991910e+00
    1.5408112411531128e-02 -1.7563657634315908e+00
    1.5641815259376690e-02 -1.8903486943236782e+00
    1.7730197874309371e-02 -2.3186294507914589e+00
    1.3963062437756480e-02 -1.7882268853350243e+00
    2.3525382447720039e-02 -1.6128091546191141e+00
    2.8815362168469482e-02 -2.0999892326131051e+00
    1.3813376771082440e-02 -2.0509299762664885e+00
    1.5806029948494050e-02 -2.1906953559839222e+00
    1.4509509963620253e-02 -1.8957096011307515e+00
    1.4685702181245151e-02 -2.1172992686728089e+00
    1.5843324591262285e-02 -2.3919024887919442e+00
    1.4271848199034085e-02 -1.9472049300562135e+00
    2.3156794237908160e-02 -1.5783670952558202e+00
    2.9395568148585995e-02 -2.0463677354431447e+00
    1.3361634728878006e-02 -1.9320665205672520e+00
    1.5625159528239944e-02 -2.0507568247151204e+00
    1.5185912479926116e-02 -1.7180165696241574e+00
    1.4183008276224564e-02 -1.8449074159154513e+00
    1.6685924828504853e-02 -2.3872821779961706e+00
    1.3732409616556961e-02 -1.8931854282149727e+00
    2.2080346171575997e-02 -1.5817220366546900e+00
    2.9982451841169076e-02 -2.0933747875504247e+00
    1.3142056189591293e-02 -1.8829938108446405e+00
    1.6420384122093765e-02 -1.9458684874491501e+00
    1.9408477373968350e-02 -1.6042045669457776e+00
    1.4841614426770034e-02 -1.4758597138331262e+00
    1.7546995463640833e-02 -2.0902660234823038e+00
    1.3122720721957679e-02 -1.7694676621487735e+00
    2.0759484614984877e-02 -1.6234184833235787e+00
    3.0785198659527075e-02 -2.2170507003666899e+00
    1.3867316582578641e-02 -2.0226331167997622e+00
    1.7865625228463234e-02 -2.0820023330759811e+00
    1.9774499701275112e-02 -1.4320820261080864e+00
    1.5008776629487757e-02 -1.3485821540271090e+00
    1.7110295938972373e-02 -1.8990772657168464e+00
    1.3497148239081543e-02 -1.8511556505839677e+00
    1.9703651215524559e-02 -1.6797426221399898e+00
    3.1616820330063175e-02 -2.3539640643419038e+00
    1.5560548027710409e-02 -2.3860142783161393e+00
    1.9095420700330334e-02 -2.3766283799893713e+00
    1.9666181892963468e-02 -1.4729462723458204e+00
    1.5286471634011232e-02 -1.3823506987437537e+00
    1.6791609672839262e-02 -1.8606945177921634e+00
    1.3625687358408902e-02 -1.9079126977546030e+00
    1.9101493644057516e-02 -1.7188263393580143e+00
    3.2249027118210392e-02 -2.3525353195375276e+00
    1.6512906271906925e-02 -2.6102643420717904e+00
    1.8649614862283066e-02 -2.6148805478550918e+00
    1.9044448160158451e-02 -1.6468041492607723e+00
    1.5226823410500717e-02 -1.4486112129757651e+00
    1.7275774483046052e-02 -2.0260471030668570e+00
    1.3517896521786229e-02 -1.9323527835068728e+00
    1.9576584572090369e-02 -1.7620568021974476e+00
    3.4352887806026064e-02 -2.2339128861423170e+00
    1.7329908677038063e-02 -2.5604884167392523e+00
    1.7602605185876006e-02 -2.7181488667250737e+00
    2.0694583780618041e-02 -2.3221058676622137e+00
    1.8097969488655646e-02 -2.0442765767824564e+00
    1.8416856773403909e-02 -2.4871311571112598e+00
    1.4342228898614997e-02 -2.0859985423708816e+00
    2.2002799121492618e-02 -1.8678389104549162e+00
    3.4165109306900775e-02 -1.9293147435636888e+00
    1.6753638007688896e-02 -2.0455543479465264e+00
    1.6399606197916229e-02 -2.5304592363384741e+00
    1.4218889151117117e-02 -2.0723618131293975e+00
    1.3813855406290279e-02 -2.0641821329500107e+00
    1.5361682738104282e-02 -2.3434693001315643e+00
    1.5345363372033389e-02 -2.0997011200781119e+00
    2.1240178993124647e-02 -1.6699165757807457e+00
    3.7019334771280291e-02 -1.9279908383300655e+00
    1.8567621261336403e-02 -1.6753025604131735e+00
    1.8931745468947839e-02 -2.1801065240280244e+00
    1.6261419994548609e-02 -2.0303379530871024e+00
    1.4848750816348486e-02 -1.9611080497524718e+00
    1.7780035553601508e-02 -2.1248404295528571e+00
    1.7580827489776449e-02 -1.7609864211307951e+00
    2.2928559886530496e-02 -1.5719820658205308e+00</input_scale>
  <output_scale>
    5.2631578947368418e-01 4.9999999999999994e-01 5.2631578947368418e-01
    4.9999999999999994e-01 5.2631578947368418e-01 4.9999999999999994e-01
    5.2631578947368418e-01 4.9999999999999994e-01 5.2631578947368418e-01
    4.9999999999999994e-01 5.2631578947368418e-01 4.9999999999999994e-01
    5.2631578947368418e-01 4.9999999999999994e-01 5.2631578947368418e-01
    4.9999999999999994e-01 5.2631578947368418e-01 4.9999999999999994e-01
    5.2631578947368418e-01 4.9999999999999994e-01 5.2631578947368418e-01
    4.9999999999999994e-01 5.2631578947368418e-01 4.9999999999999994e-01
    5.2631578947368418e-01 4.9999999999999994e-01 5.2631578947368418e-01
    4.9999999999999994e-01 5.2631578947368418e-01 4.9999999999999994e-01
    5.2631578947368418e-01 4.9999999999999994e-01 5.2631578947368418e-01
    4.9999999999999994e-01 5.2631578947368418e-01 4.9999999999999994e-01
    5.2631578947368418e-01 4.9999999999999994e-01 5.2631578947368418e-01
    4.9999999999999994e-01 5.2631578947368418e-01 4.9999999999999994e-01
    5.2631578947368418e-01 4.9999999999999994e-01 5.2631578947368418e-01
    4.9999999999999994e-01 5.2631578947368418e-01 4.9999999999999994e-01
    5.2631578947368418e-01 4.9999999999999994e-01 5.2631578947368418e-01
    4.9999999999999994e-01 5.2631578947368418e-01 4.9999999999999994e-01
    5.2631578947368418e-01 4.9999999999999994e-01 5.2631578947368418e-01
    4.9999999999999994e-01 5.2631578947368418e-01 4.9999999999999994e-01
    5.2631578947368418e-01 4.9999999999999994e-01</output_scale>
  <inv_output_scale>
    1.8999999999999999e+00 -9.4999999999999996e-01
    1.8999999999999999e+00 -9.4999999999999996e-01
    1.8999999999999999e+00 -9.4999999999999996e-01
    1.8999999999999999e+00 -9.4999999999999996e-01
    1.8999999999999999e+00 -9.4999999999999996e-01
    1.8999999999999999e+00 -9.4999999999999996e-01
    1.8999999999999999e+00 -9.4999999999999996e-01
    1.8999999999999999e+00 -9.4999999999999996e-01
    1.8999999999999999e+00 -9.4999999999999996e-01
    1.8999999999999999e+00 -9.4999999999999996e-01
    1.8999999999999999e+00 -9.4999999999999996e-01
    1.8999999999999999e+00 -9.4999999999999996e-01
    1.8999999999999999e+00 -9.4999999999999996e-01
    1.8999999999999999e+00 -9.4999999999999996e-01
    1.8999999999999999e+00 -9.4999999999999996e-01
    1.8999999999999999e+00 -9.4999999999999996e-01
    1.8999999999999999e+00 -9.4999999999999996e-01
    1.8999999999999999e+00 -9.4999999999999996e-01
    1.8999999999999999e+00 -9.4999999999999996e-01
    1.8999999999999999e+00 -9.4999999999999996e-01
    1.8999999999999999e+00 -9.4999999999999996e-01
    1.8999999999999999e+00 -9.4999999999999996e-01
    1.8999999999999999e+00 -9.4999999999999996e-01
    1.8999999999999999e+00 -9.4999999999999996e-01
    1.8999999999999999e+00 -9.4999999999999996e-01
    1.8999999999999999e+00 -9.4999999999999996e-01
    1.8999999999999999e+00 -9.4999999999999996e-01
    1.8999999999999999e+00 -9.4999999999999996e-01
    1.8999999999999999e+00 -9.4999999999999996e-01
    1.8999999999999999e+00 -9.4999999999999996e-01
    1.8999999999999999e+00 -9.4999999999999996e-01</inv_output_scale>
  <weights>
    <_>
      -2.2397034416867911e-02 7.5148214191547213e-02
      -4.2076759800271620e-03 1.0297240406603113e-01
      2.4958166944742989e-02 -8.4291211049673048e-02
      2.7499331277739809e-02 9.6681619999999281e-03
      3.3147738610699695e-02 6.7730797548279181e-02
      1.6858507600889135e-02 -2.8681501559840641e-02
      -3.3827852244074155e-02 -6.7094401820030014e-02
      -9.8381248501087457e-03 1.1777315223110776e-01
      -1.5303577623353768e-02 7.0505170418212706e-02
      -4.5520002317424389e-02 1.4092221406739731e-02
      -5.0235265479268796e-03 1.1620086924518394e-02
      -6.2968774066584673e-02 -1.0961814054954087e-02
      -5.1072383065801669e-02 -7.1418579254041617e-02
      -1.1370429308688651e-02 4.3208826048930088e-02
      8.6571651600952064e-05 4.7450700700378261e-02
      -1.4734826102078939e-02 3.5890220836093757e-02
      -1.3364191575916212e-02 -4.8828886618621489e-02
      5.9201959222795413e-02 -8.0915009226479220e-02
      -1.2208395113499599e-02 -2.7990720408875906e-02
      -5.8038642229714900e-03 -3.4342316123615966e-03
      1.1877899723663224e-01 8.1055754918897757e-03
      1.9276575058632211e-02 -1.0689171864045673e-01
      2.5564162416654469e-02 4.7851906506122692e-02
      5.1066993048162021e-02 -7.5579945744102567e-02
      -2.3469079793356655e-02 2.0376000311753451e-02
      2.6907213419812264e-02 3.9922865317393974e-02
      -2.3361330805911108e-02 4.9172645745714255e-02
      9.7502193333518963e-02 1.4766436979178252e-01
      5.3299926499384746e-02 3.9288666287441279e-02
      3.8329437903913883e-03 9.2385296881909260e-02
      -1.1677048937077172e-01 6.7871526743739516e-02
      -1.2648634286788694e-02 6.5106853591803182e-02
      -2.7315343187542578e-02 -1.3838965019055544e-01
      1.8164665704009424e-02 -1.5963905956088814e-01
      -2.4718853946445841e-02 -1.8604915730804656e-02
      -1.1285931675852311e-01 -3.5917948929057260e-02
      3.4859403729951395e-02 4.6174355352720978e-02
      -2.5288480291966425e-02 1.9832907374560175e-02
      4.9132600138682314e-02 -2.9437981495482480e-02
      9.7739838292021115e-03 4.6570371039480869e-02
      -1.0410323590324393e-02 2.1558468084177350e-02
      -1.9849969874247111e-02 4.7627971694322341e-02
      4.2149144048892299e-03 7.2647001670934465e-03
      6.2918570215308528e-02 4.8397584497528685e-02
      3.3564917927027337e-02 6.3835107361020424e-02
      -4.3757402138608986e-02 -1.9646310537459161e-01
      -4.8963378404799147e-02 -1.7483531801729953e-02
      -1.1109596174811033e-01 3.2997478874902342e-02
      5.9740106367483815e-02 -7.7347478241448109e-02
      -2.3978314459734376e-02 -3.7123144284799917e-02
      8.1307889392573440e-02 -1.2539801314086800e-02
      1.0725325069609759e-01 8.2346182849779181e-02
      -9.3850978434376880e-03 -4.3191655001521133e-02
      -4.7925330829396054e-02 6.2502193419485515e-03
      -3.0133363328674868e-02 -2.4945132586570815e-02
      -5.9440059753017808e-03 -1.2823828777031468e-01
      -5.2722573481506461e-02 4.8762841330939603e-02
      -5.7925252188958991e-02 3.4087997671687138e-02
      7.4919112428870208e-03 4.0631459003864431e-02
      2.9114035825789152e-02 -3.6211195485475536e-02
      1.0348776484777461e-01 1.5090776543627830e-02
      -2.2606952189251272e-03 -1.2178241098785497e-02
      -8.0156743175633829e-02 3.3708440661848506e-02
      9.8493222356839990e-03 -1.0548297269176510e-01
      -2.3112579159808262e-02 1.3868129588187689e-01
      3.6471317526859580e-02 1.1750841926308024e-01
      3.1408848921282715e-03 -8.5744640978340475e-02
      4.3470782181579397e-02 6.9961765210800097e-03
      3.4999955296675947e-02 8.9558947121635188e-02
      -4.5027559702923603e-04 -5.2635726788709702e-02
      -5.1146575201346252e-02 -7.3378084028133714e-02
      -1.2350547929085503e-02 1.2864506861626165e-01
      -6.5132055346150033e-02 1.2688710118522933e-01
      -5.8500041014347984e-02 1.2538312549026619e-02
      -1.0767089601884302e-02 2.5757546829735772e-02
      -1.0808003561977989e-01 -4.9095381985971957e-03
      -3.6458298870510761e-02 -5.4710718804116938e-02
      2.1043525766708659e-02 5.7331684730751419e-02
      -1.0176577971332385e-02 4.0680041977271805e-02
      -4.1113679854318061e-02 -2.5099630548468879e-02
      -3.1762159601017879e-02 -6.2480596050087996e-02
      8.5767889721228063e-02 -1.1376465809447911e-01
      1.3339800112978946e-02 -3.0230107559627826e-02
      -1.2508906091650821e-02 -2.3650460007840421e-02
      1.0480219909275267e-01 2.6529470325677595e-02
      6.3868326899509956e-02 -1.2535810632527261e-01
      9.3095260953413080e-03 4.7388826701542930e-02
      8.2455572489646523e-02 -1.0579574177965852e-01
      -3.5305165350753481e-02 1.6585772929597932e-02
      -1.9604579985879521e-02 4.6958555487822899e-02
      -5.3117633216502674e-02 6.1622577138666264e-02
      1.5629444165777154e-01 1.7605858076799988e-01
      1.2707236365379815e-01 4.3710289604021894e-02
      -1.5816589099713464e-03 9.1915882877395827e-02
      -1.8420886538986977e-01 1.0012469142357565e-01
      -9.1433811759407999e-02 6.2235239807108551e-02
      -8.8830226458709013e-02 -7.7304640765786803e-02
      8.1874614307494306e-02 -1.5664467564758328e-01
      4.4723890768812495e-02 -6.6765494308756723e-02
      -1.0616547525937152e-01 5.7481734907202800e-03
      -5.7448436953404869e-03 1.2777363473356512e-02
      3.9959002378854728e-03 2.1330466245293292e-02
      6.6333448712189741e-02 -2.6781244183989313e-02
      -2.0706231650503761e-02 3.5093265402722736e-02
      -7.2390598343056497e-03 3.1351794675231921e-02
      4.9773554438938767e-03 3.2752013279888699e-02
      -3.2238727980396557e-02 1.8575220885680161e-02
      1.3480898861412871e-01 9.1202675834789776e-02
      7.9754076399277743e-02 7.6603074898978676e-02
      -7.5452558441593560e-03 -2.1251283886537095e-01
      -4.6298830463663253e-02 -9.1794648870504425e-02
      -6.3519037470584253e-02 2.7110455130626890e-02
      7.4605154110588101e-02 -2.9609527561883238e-02
      4.6777133651903093e-02 -7.2952283295773468e-02
      7.5499784038393802e-02 1.3136053402257898e-03
      5.6236886448756615e-02 8.2681846918647994e-02
      -3.3891814286021477e-02 -8.1734457780077620e-03
      -7.1867186007332273e-02 2.3935232295216123e-02
      -5.0097089281833165e-02 -5.7190498768243711e-02
      -5.1021670085094679e-02 -2.0272274788464539e-01
      -2.9073563100510548e-02 5.5182174739427804e-02
      -8.5746797535849267e-02 -3.5014137864278566e-02
      3.3073810341505576e-02 7.0766079224453243e-02
      4.7236437257552254e-04 -8.3168206771720321e-02
      1.0756565833510220e-01 3.4396396094187742e-04
      1.6052299759468036e-02 -6.0357312534816743e-02
      -9.8398411331627508e-02 1.9696934149060898e-02
      -5.9819840635347024e-02 -1.7015152204039785e-01
      -3.2325524054810803e-02 2.1783776265163351e-02
      -7.0539652081339652e-02 9.1626253218538609e-02
      2.2055482888619138e-02 4.3362265893389880e-02
      4.2537341484044852e-02 -1.6742356856491617e-02
      6.6061186267325656e-02 -3.7246133508215040e-02
      -7.6712992617207751e-02 -9.8841894508749584e-02
      1.1681419986661556e-01 6.5859968953989614e-02
      5.3042098995283319e-03 1.3814952853036155e-01
      2.5413892194527020e-02 9.2460420296804346e-02
      -2.6389552712958432e-02 3.7205363444092115e-02
      -1.0692360263375916e-01 6.5515542898508430e-02
      8.8259486500174254e-03 6.7682877404385139e-02
      -7.1416480494536735e-02 4.3929070644566984e-02
      1.1082123302215995e-01 1.2964662969223805e-02
      -6.4782498611904951e-02 -1.0565998690554082e-01
      1.2583648607339213e-02 -7.8485762062088391e-02
      -9.6289549045437718e-03 -1.2720096173097892e-01
      3.8508555341765394e-02 1.0095945318437734e-03
      1.0506729100842450e-01 -6.2803923199706915e-02
      -4.4977567244347948e-02 7.4606961819023931e-02
      3.4494608681670084e-02 8.1233499126698687e-03
      -5.9742721675114845e-02 1.8349539103721071e-02
      3.8920771244163981e-02 -9.2035617909300965e-03
      4.7722521792641194e-03 5.8651055087465785e-02
      -4.3309366603327841e-02 4.0259725348859458e-02
      7.6420770818572584e-02 -3.0285597558617972e-02
      -2.1587668742845095e-02 5.7427359419730407e-02
      -7.5142697719617190e-03 -9.0397002292310333e-02
      1.6171615115554991e-01 8.3503783572175475e-03
      9.5854109312400348e-02 -3.2889822066014804e-02
      4.0387505812652436e-02 9.6759198704716401e-02
      -8.1250581478945955e-02 -8.8020754525254416e-02
      7.2087644074034729e-02 2.2114747577240478e-02
      8.4280099139436779e-02 4.0762544670505108e-02
      5.0215299431306488e-02 -2.3809860158912198e-02
      -1.1608178870567858e-01 -7.1290082323408116e-03
      -3.9318407998090450e-02 1.0105133942690005e-01
      2.6018067365442297e-02 1.0324608455046459e-01
      1.9369686196164592e-02 -9.6256132444642331e-02
      7.7260565723671001e-02 -3.9881368774602390e-02
      -1.4706354438191177e-02 3.4065777265824645e-02
      4.8269249032380945e-02 9.1606629799820871e-02
      -1.9516862130185872e-02 -5.5849795480446995e-02
      2.6387782914772961e-02 1.5025624951667576e-02
      2.1320313213788345e-03 -7.7440037180883771e-03
      -4.6772453438914251e-02 -1.3061834923426777e-01
      4.3277586840178087e-02 -7.6696051122249892e-02
      -2.1707071063277260e-02 1.0687419226693545e-01
      1.2830178943712895e-02 -5.7137510826387940e-02
      1.2318484417563534e-01 -7.0019878525931611e-02
      -1.9793206469332178e-02 3.5044070404318180e-02
      3.5887381144776007e-02 -7.3901502843362235e-02
      1.1554184474871064e-01 2.3722861477383460e-02
      -5.3202526494764805e-03 -5.6671560848675574e-04
      3.1010714075573625e-02 -6.7083120817777328e-02
      -7.7831049246866860e-02 -2.5696589303464894e-02
      8.3668604808964361e-02 -9.8015250835884485e-02
      -1.6752282576515048e-01 -7.8762561569772752e-02
      -2.4617618617951906e-02 9.1882353189035558e-03
      -6.8990467785220444e-02 3.0154676160662711e-02
      9.2680336800428198e-02 1.1146522025038490e-01
      -8.3630725146516843e-02 1.4906546184236072e-01
      6.4579187641966254e-02 -3.7883462131506201e-02
      -5.3567676822791982e-02 -4.2265707698059464e-02
      -3.1998352734205439e-03 -5.0011698708484341e-02
      -1.2066305233072100e-01 3.5572029607365725e-02
      6.4330701885048271e-03 1.6349116702148311e-01
      -1.8741992788720314e-02 -3.8196439562613926e-02
      8.6727236779577978e-03 -1.0128786785034803e-01
      -8.5807030707814994e-02 -1.1396387509233963e-01
      1.7728645542479704e-01 1.3539447960129100e-01
      4.4344694921954440e-03 4.8530903388060535e-02
      1.1224091085291187e-01 4.7472840017643132e-02
      2.6273352267937738e-02 1.4706776285865754e-02
      -1.3699689709574897e-01 9.9204642322137326e-02
      6.8367463697170547e-02 1.0955931197969992e-01
      -2.8306208026314929e-02 5.1776527742323664e-02
      1.5207229609188422e-01 -5.9942986789619353e-02
      -7.1313044133692091e-02 -1.4401914896053836e-01
      8.8739764444103975e-02 -6.3076476014710836e-02
      3.0837670257760817e-02 -1.5081287224693685e-01
      -7.5591133673669000e-03 1.0868661049547078e-01
      9.6992994634781143e-02 -2.9971937465873139e-02
      -7.6049207221715598e-02 7.8065261652129278e-02
      -4.4549772593186772e-02 -1.7626551890397982e-02
      -1.2171961667711854e-01 1.2661571891745299e-01
      5.7472398278026179e-02 -5.6913855623116974e-02
      -2.4792920488160165e-02 1.1916462400240219e-01
      -6.2407660546478561e-02 3.6672205990032312e-02
      8.7651115559683357e-02 -9.1498750356805617e-02
      3.3454248786277771e-02 1.4019831608402117e-02
      -1.3010438033137767e-01 -1.8717546977181587e-01
      1.1366845898584768e-01 5.1341218124639418e-03
      7.3509888877151514e-02 -1.2131103772017721e-01
      1.5594337182878293e-01 4.2498216694654478e-02
      -3.0370832903548983e-02 -1.1313910570184552e-01
      1.2500750817599479e-01 3.0632785354474345e-02
      4.9718550701845443e-02 1.1723433163044568e-01
      6.6091166389356512e-02 1.0097445123390683e-02
      -3.0535684865613848e-02 -1.6190403532775646e-02
      -7.5801646575601636e-02 1.2000247989864589e-01
      -5.5081950783126927e-03 1.1579465137587285e-01
      -3.9921787904962931e-02 -9.2921043528442646e-02
      1.0236382287881721e-01 -6.7229161926708247e-02
      -2.6489714877847896e-02 5.2938482191546551e-02
      3.0921650141803311e-02 9.0688785928319388e-02
      -1.6673479117000427e-04 -9.6847830881288496e-02
      -4.6382686424310454e-02 -3.2732514484300430e-02
      -5.1294742387122089e-02 -7.9090647149914040e-02
      -5.0887861552928855e-02 -3.8529532480490368e-02
      9.1183808943471195e-02 -4.5841227130755313e-03
      4.0460180733994350e-02 1.1010338440645158e-01
      -2.4336938708277155e-02 -6.5106383044746377e-02
      1.3932896874250203e-01 -6.0822502992456479e-02
      -6.6225940223887864e-02 4.6349125367148962e-02
      -2.7661135213633059e-02 -1.0771508930119279e-01
      1.8404091717107934e-01 2.2353660316705125e-02
      6.9742460391336802e-02 -4.0633823626008307e-02
      9.6381913302027555e-02 -4.1784710823534098e-02
      -8.3091265384831567e-02 1.2172306486449216e-01
      1.1816755129096049e-01 -1.3721907959543317e-01
      -1.7873835626418533e-01 -1.0335377941971248e-01
      -8.5753790658671739e-02 -7.9112189318329043e-02
      -9.5099260496221985e-02 5.6582400623703386e-02
      1.8539907751883130e-02 1.0961564801963129e-01
      -6.0678149800385509e-02 2.2432472216849550e-01
      1.1948389679584187e-01 -7.4770568047476713e-02
      -4.9242951848107439e-02 3.5098444259412019e-02
      -2.5463943516214880e-04 -5.1937686517616016e-02
      -9.5649132640975729e-02 1.2751322653365958e-02
      9.1700404940745824e-03 1.3873502238291835e-01
      1.4410681076624927e-02 -3.2094210755203377e-02
      -4.4849367626476816e-02 -7.2987995881350673e-02
      -7.0204858476364915e-02 -1.0142065052519263e-01
      1.2071897254839788e-01 1.1763917354390516e-01
      5.6164706205962655e-03 5.9636487686185916e-02
      9.9672716592987154e-02 3.4327575403589994e-02
      1.7175884937599518e-02 5.1221191467969378e-02
      -1.2879159082279978e-01 1.0025472854081875e-01
      9.9961378575804824e-02 8.4849853668209782e-02
      -2.0181876483494284e-02 8.7442864158729164e-02
      1.1778192739536171e-01 -6.5721100848190855e-02
      -4.7559980435451447e-02 -1.4007716398461162e-01
      1.0589256070483559e-01 -4.2404754515321955e-02
      3.5631410391562576e-02 -9.8366050349669873e-02
      -1.0058098335884591e-02 9.8466077695225432e-02
      9.3836581727975293e-02 -4.5107519481741722e-02
      -7.0646582731618265e-02 6.4457658322504038e-02
      -2.8147031063576584e-02 6.0624763737228259e-03
      -1.3868063862520510e-01 1.0881237198306343e-01
      3.1583022131935180e-02 -3.9968797039352411e-02
      -2.2598921469219990e-02 8.8361657515916098e-02
      -5.1813241131281010e-02 5.1684200450158816e-03
      6.8107448844927365e-02 -6.1863592454860103e-02
      1.9114543293166746e-02 2.4967106392460317e-02
      -1.2109304998320776e-01 -9.1101535725389995e-02
      9.5096392229946203e-02 3.6247335846449895e-02
      1.4898860502463546e-02 -7.4819803087567444e-02
      1.1523808142586296e-01 3.3189516791489607e-03
      -2.1629456376620452e-02 -1.0262413996110223e-01
      1.3940007456376477e-01 9.9107237763000986e-03
      1.6434067727435213e-02 1.1505096097550019e-01
      4.7247478193597620e-02 -5.5493869773187718e-03
      -3.1862523970518281e-02 -1.3691456048198963e-02
      -4.8851144390202085e-02 1.2040692840390671e-01
      5.7627486245072435e-03 5.9216669774586048e-02
      -4.5529660599905056e-02 -6.7130113986092255e-02
      8.8826668774558221e-02 -3.1312650765134863e-02
      8.8230567745958971e-03 5.1127748928856069e-02
      3.6634970477452261e-02 8.2171361903300238e-02
      -2.1204698053925272e-03 -1.0699558882359068e-01
      -2.9877121415171917e-02 -2.7810094801631585e-02
      -2.5132392170826495e-02 -4.2125652739898406e-02
      -6.2830052473061518e-02 -2.6455569597577770e-02
      6.0573078498380319e-02 1.6923525120864742e-03
      3.1352485047799347e-02 5.9297480816336713e-02
      -4.7774872537243003e-02 -5.5721858508252869e-02
      7.2859749297791654e-02 -7.6354715334754769e-02
      -4.6726459728777349e-02 2.8424563379973813e-02
      -6.3223298316579290e-03 -7.6272017130337488e-02
      1.7051177370862244e-01 3.3127097362021428e-02
      9.9529713884855764e-02 -1.7304480129164621e-02
      7.5129431224396012e-02 1.5842233092812556e-03
      -1.2004250120243476e-01 1.1334231860657831e-01
      1.0510589305718553e-01 -1.1476294307150592e-01
      -1.6593668521599492e-01 -9.1404139564532388e-02
      -8.0092726383011820e-02 -6.0137215591480948e-02
      -8.3925335540949539e-02 7.3643926614202387e-04
      -1.0273268489126580e-02 8.0004774698975281e-02
      -5.8135147629843148e-02 1.8403017768628380e-01
      5.6997965782835336e-02 -4.3202786394650999e-02
      -4.1335587591928832e-02 6.0798296944738345e-02
      1.4064301122077081e-02 5.0170728464009936e-03
      -4.0998669951137091e-03 3.2345475044533188e-02
      2.8865557456700552e-02 2.4239114799422111e-02
      6.3590449625898743e-02 1.1793541679263202e-02
      1.2950775256935620e-02 1.3306607571210230e-02
      -3.3621613448574852e-03 -7.7611833716520515e-02
      4.3430810453112839e-02 -2.2471348839019228e-02
      -5.4605425356254081e-02 1.1972838923443520e-01
      7.6376037540251615e-02 -3.2421553943527449e-02
      -2.6249241054742554e-02 3.8495961507887186e-03
      -8.2913126893886233e-02 7.6781969174593637e-02
      -2.5177660839524251e-03 2.3788653573540330e-02
      -7.5345628491381322e-02 -4.7493702636095449e-03
      3.3986600368883417e-03 -2.8508525793707089e-02
      1.1937203335638202e-02 -3.6503665606292146e-02
      8.9563569299435417e-02 2.4552251814014464e-02
      3.1860662940071921e-02 -1.2620267110583350e-01
      1.4830150917936838e-02 1.7877043415873175e-02
      -1.0752442942618692e-02 -1.2607188707373642e-02
      -4.2674127284753706e-02 1.7175678012088857e-02
      5.3474601691717860e-02 -3.3242677927243419e-02
      -6.3352957429157586e-02 -1.1146138601990589e-03
      5.4908009282822134e-02 -1.4928949707724399e-02
      2.9436973252680344e-02 -1.4982929523548905e-02
      -1.0372133919679512e-02 -5.3509530926252940e-03
      -6.1765939368404006e-03 -4.6240474332382452e-02
      5.7395301574758174e-02 3.4982764424878132e-02
      -1.5572892774329744e-02 3.8656037882797520e-02
      6.4791773221570190e-02 6.7736874891887136e-02
      4.3970615965720009e-02 5.0349256886232742e-02
      2.6277764337969203e-02 4.1763979067020271e-02
      1.7522490317490490e-02 -2.4407169156191667e-02
      5.7717891501420059e-02 -8.2504589813111193e-02
      2.4559350498632952e-02 7.7350773083002020e-02
      -1.6697232382824913e-03 2.3235579073325366e-02
      -5.4622248545554322e-02 -2.6136201332498766e-02
      4.2333606374299955e-02 1.1226329556522058e-01
      -4.6531860998959521e-02 1.5292657417502872e-02
      -2.1577398400669877e-02 -5.4718999742676973e-02
      2.8080657335743355e-02 -4.9830741335690730e-02
      9.6978830099133642e-04 3.4439489568874333e-02
      -6.5238619508842200e-03 4.9485876715797066e-02
      9.0058330483390077e-03 5.0021171043956626e-03
      -2.0278341291718960e-02 4.1439907625040594e-02
      4.1653581145307235e-03 3.5035640862489080e-02
      -4.2148655479175547e-02 -7.5971876150861276e-02
      7.6049515912330595e-03 4.3983727972372731e-02
      -2.6816440557645982e-02 4.3754922211520747e-02
      2.2122188637742152e-02 -5.9383752625831884e-02
      -2.3702426435483256e-02 -1.4302904423047070e-02
      2.4520410246509260e-02 -1.6711427102768062e-02
      2.0184666985116603e-02 4.4567871564736045e-02
      8.7181724406657224e-02 -4.2775217311959803e-02
      8.2091685538924083e-02 1.2195704819754729e-02
      7.9950427372369008e-03 -2.9994569022343473e-02
      -9.4061017687610465e-02 4.3172201981647014e-02
      3.1993017335993863e-02 2.2800865028023361e-02
      -1.1055673982146963e-01 -3.6190099069697869e-02
      -1.8503746228070495e-02 -5.9692026760115053e-03
      2.6192414759295079e-02 -3.1388546309214699e-02
      4.2231650912251617e-02 -2.1901857253677170e-02
      -4.4666028617538413e-02 6.2635713103583721e-02
      -1.0542818985230960e-02 -2.4830137380171570e-03
      -3.2779521048762077e-02 3.7786966969724313e-02
      3.5915683051354286e-02 8.2282799255652753e-02
      1.9684052267707367e-02 6.9845181062299047e-02
      1.9266620483491433e-02 -4.7867817410541358e-02
      1.5042290869822608e-02 3.2924006194726303e-02
      1.0100943974370732e-01 3.9552027091976583e-02
      3.8894184966494542e-02 -1.2959190276711917e-04
      -6.3475940556562790e-02 -8.5464593805860745e-02
      -8.4992513384651178e-02 1.2511141277543503e-01
      4.2368902837691472e-02 -6.0305467857027985e-02
      -3.6824117961068445e-03 -3.8966643543842217e-02
      1.8124264044400235e-02 -4.0056032851676715e-03
      -9.7261252495380215e-02 4.7123832329919934e-03
      -6.4239201970734836e-02 -1.0074437935465122e-01
      -8.1363501632356228e-02 -1.5216165306988227e-03
      5.1667704631480217e-02 8.5374185732630767e-02
      6.1347429168292923e-02 1.0546308903315615e-01
      -1.4328181510919670e-02 -8.8945633952163705e-02
      4.4352696007275934e-02 -7.7447878249337965e-02
      -1.2937785650618394e-01 4.7977569290674996e-02
      -2.9071987756323182e-02 -3.6251077502649075e-02
      1.2273916427398353e-01 -6.4889548398713637e-02
      9.6083839864116255e-02 -1.3943769373442924e-01
      6.4794052793222381e-02 1.5685453353796796e-02
      9.7757484114385271e-02 -4.6778132981049450e-02
      -4.4079065002861333e-03 2.3865240595352760e-02
      -6.5103821001755699e-02 -7.7096242276439766e-03
      3.9602184028887960e-02 -4.9633852820283007e-02
      5.5822330931457220e-02 1.1094099846160510e-01
      2.4862196926435723e-04 1.0402271684437649e-01
      8.9611135681861701e-02 8.9180927246068256e-02
      -1.0066958204766209e-01 8.3864713803685445e-02
      5.2756987147136024e-02 5.2773999934485623e-02
      -7.7823746404398889e-02 -1.8005525373332709e-01
      7.6527010668958249e-04 -3.8187400556487970e-02
      -7.8698006553515124e-02 2.7207404908651155e-02
      -6.6565385249276243e-02 -3.6899635022156603e-02
      4.5793934072546286e-03 3.6436737208093810e-02
      -7.6418764163705494e-02 -6.1573584158329184e-03
      5.7924544533646649e-02 -2.4311782671981919e-02
      -6.1944129765222178e-02 -1.3192855888992109e-02
      -3.3484824247374916e-02 8.7592476131421026e-03
      -6.3801430355804156e-02 -7.0576105220716903e-03
      1.0471528389688499e-01 1.3277134005958857e-01
      -1.2563597960873273e-02 9.1933555810634865e-02
      2.4343903833979365e-02 3.5516567432464813e-02
      -1.6066555581981477e-02 -1.2672259437630973e-01
      -5.4870819879881759e-02 2.7052709716109354e-02
      -4.4772362995583591e-02 7.5448805374382817e-03
      3.9129348621380990e-02 -7.8663249926109430e-02
      -3.6634869166302035e-02 6.0619485310370883e-02
      1.2556546840996563e-01 2.0244802516705667e-03
      4.1849953795406618e-02 8.2454020812192802e-02
      4.0178017747990055e-02 -8.8883804459751997e-02
      6.3009352407522354e-02 2.6857985203874838e-02
      -3.4715681190930679e-02 -5.4613953919446711e-03
      9.0873916020317615e-03 -8.8329730893134256e-03
      -5.2171136479634103e-02 1.1433186870791585e-01
      1.2272955092852263e-02 -5.3148878247957585e-03
      -5.2514531945582643e-02 2.0986848931441440e-02
      1.1854382724813511e-01 4.8342431824622877e-03
      5.8767605955633073e-02 -9.5086128087291485e-02
      1.7694452631899131e-03 -2.3800479059410871e-02
      -5.8150361561452694e-02 2.5525409200321710e-02
      -8.0767254213908995e-03 -4.8950521614918072e-02
      -4.3332748259696432e-03 -1.1309921317381301e-02
      -2.4665228822462224e-02 1.6699601872462676e-02
      5.6015535677454882e-02 -3.3991762414566279e-02
      4.9904426150676966e-02 1.7316911922627340e-02
      4.8184356755926507e-02 3.5069455677538108e-02
      5.8114199474260907e-02 5.2926858368006327e-02
      -2.7806476605700431e-02 -4.9150173217898656e-02
      -6.4690627628747110e-02 8.9574045748900141e-02
      3.9041528924812163e-02 -1.1348811896062766e-01
      -1.0156243191042160e-02 1.7432444932025993e-03
      3.2432324548491383e-02 -4.2365162884392113e-02
      -1.3847199151487367e-02 -5.0162384389105148e-03
      -6.2893115955421922e-02 -7.2245524646289791e-02
      -1.0253908726151474e-01 9.1631123957996129e-03
      2.8387241324643278e-02 5.1024719374176707e-02
      3.2110068294702400e-02 1.6004696107937130e-01
      -3.4666419411515516e-03 -6.5666502670833723e-02
      2.5382127090998755e-02 -2.1601709069476883e-02
      -9.3273242394435185e-02 4.6084168171805918e-02
      1.5305619333626350e-02 -8.4529350644891243e-04
      8.9814352302037603e-02 -5.0160789886644248e-02
      -5.3051184547437940e-03 -7.6695077478521931e-02
      2.9979570481045090e-02 -4.0407410162248188e-03
      4.6347961166409525e-02 2.8705055491922198e-02
      7.0117408664978793e-03 -1.2841498377678420e-02
      -3.0627599662052356e-03 -2.4654615962122043e-02
      2.7007290105886473e-02 -5.1784032896739614e-02
      -2.1795097610078269e-02 4.1204222623532349e-02
      -5.6201452427230021e-02 5.7501125482634474e-02
      6.9486777433203084e-02 8.7911749459853528e-02
      -3.4665491452503111e-02 7.2464842517397196e-02
      5.6446059405195585e-02 -2.0186517284675612e-03
      2.6483692188041558e-02 -1.2713343303594210e-01
      -4.2654185693775104e-02 -9.1760008744117286e-02
      -9.2766358766670817e-02 4.8656741289137870e-02
      -4.6899435982080233e-02 -3.4249383933582192e-02
      3.2283459842454905e-02 4.4994935101900585e-02
      -6.8240820921517953e-02 2.6967771540433710e-02
      3.9414245568013366e-02 -5.8308121331266116e-02
      -1.2408031120784951e-02 -3.9997332514145169e-03
      7.4749736127681431e-04 -9.9085795228318258e-04
      -4.3901608352199521e-02 -3.6167892388188970e-03
      1.0340452216093043e-01 1.0414828833756824e-01
      -3.3393166475508183e-02 2.3305377039593241e-02
      -2.2079994842788820e-02 3.3027570088295481e-02
      3.3347906682290253e-05 -5.7116785370960155e-02
      -3.7728088467383958e-02 8.7936264105582543e-02
      -4.8310412218926888e-02 2.3935807545090261e-02
      -3.3016334301118077e-03 -9.3472948579404219e-02
      -8.8917639651337990e-02 7.2240416292959519e-02
      6.7816039683072940e-02 -2.9143333501547554e-02
      1.0136974814681257e-01 3.8996681727717836e-02
      8.1639389769005311e-02 -8.2144487665565258e-02
      2.6033767123784458e-02 3.2662810280888570e-02
      -1.4114266969978853e-02 2.3911651726659714e-02
      3.6246909430530376e-02 2.8432320654854761e-02
      -7.6961190300875032e-02 5.6625884896409823e-02
      6.3062833512398858e-02 9.3727476591793091e-02
      -5.0463053944863570e-02 -2.0717605420164931e-03
      8.0752883909199338e-02 3.4324536261132353e-03
      1.8337114574022095e-02 -5.4838626098111243e-02
      -1.5262575350906128e-02 3.3966449264421438e-03
      8.0134961641025754e-03 6.9060949759503068e-02
      2.5346975609216654e-02 5.6235365737780665e-02
      -2.7219704769672469e-02 7.8935414598831063e-02
      -1.8244250490123001e-02 1.3576596318838602e-01
      2.9218532532646540e-02 -7.8848079100629631e-02
      2.4414067259106446e-02 -1.1854628564791790e-02
      3.5054292233557507e-02 4.4336978314937645e-02
      3.2540205736732619e-03 -9.0866017701498339e-02
      -4.1893971215826047e-02 -3.7411253728552883e-02
      -3.2939831928410698e-02 1.5504890559677156e-01
      -4.1026364703847941e-02 8.7458511485043744e-02
      -4.2157069759046581e-02 2.3596035787153861e-02
      -4.6304018331726420e-02 3.2957696576678262e-02
      -7.7193817951398069e-02 -3.6929521041309771e-03
      -4.5486768589927340e-02 -6.4065382845061705e-02
      2.7521726101947523e-02 4.9938640863448076e-02
      -4.2705856138426576e-02 4.3956365904945109e-02
      -1.0035505640169004e-03 5.8143247084233435e-02
      -1.5461080732222018e-02 -7.1735060109235832e-02
      7.1411393615125926e-02 -8.8846301942824113e-02
      3.3429387116484577e-02 -4.0024359631217699e-02
      -3.1509280320654587e-02 3.6981928979168813e-02
      1.2353157014405036e-01 1.2876565421448683e-02
      1.3817367586125600e-02 -1.0515840050973159e-01
      2.8212753573932266e-02 1.2075068414321150e-02
      6.0824476687866273e-02 -7.4356909348945011e-02
      -4.1766285064814772e-02 2.8597137797380927e-02
      2.1723495702367656e-02 3.9174673370528650e-02
      -4.1091435682497505e-02 5.0602936755494030e-02
      1.1358394829076653e-01 1.2836994972135793e-01
      1.0088097383025274e-01 4.2012985790121894e-02
      2.4106656599410973e-02 6.4745242903181469e-02
      -1.4451817991789942e-01 9.3346988064763520e-02
      -1.9044289854615312e-02 5.2544645781256227e-02
      -6.7157017774345698e-02 -1.1958813206241541e-01
      4.4847067850803335e-02 -1.4500213824510388e-01
      4.9668528343153563e-03 -5.7623311046804897e-02
      -1.0838487177711553e-01 -1.3270910693971308e-02
      2.0513189084253564e-02 1.7643121365901116e-02
      -3.5122787970870532e-02 2.1512208644779290e-02
      7.6997286669949816e-02 -6.0736280168876958e-02
      3.1261400284948943e-03 1.5394240597389669e-02
      7.7992370247888729e-03 3.2571681485847159e-02
      -3.4338494238856598e-02 8.0600161747012705e-02
      -1.6827177141411687e-02 -1.3396991154237627e-02
      8.5162433096049039e-02 8.9868681992278654e-02
      4.6173840388037055e-02 6.8331405990694524e-02
      -3.1394469773601642e-02 -2.0966628055425418e-01
      -3.0804803574167657e-02 -6.8118528707573359e-02
      -9.3439605255778810e-02 4.3371226794811209e-02
      8.8170088232318519e-02 -7.2133093756851396e-02
      3.3554487867558262e-02 -4.4223391093499209e-02
      1.0107790310715706e-01 -1.4632510418740410e-02
      1.1048774640737308e-01 4.3562416554208346e-02
      4.0388956865251742e-02 -1.2233414605055896e-02
      -4.3094264070653969e-02 1.8085582615876391e-02
      -4.3907638264894917e-02 -5.7395568757351169e-02
      -4.7949182059605785e-02 -1.3052298324080380e-01
      -3.0105108701845157e-02 1.7893609287692940e-02
      -9.3719890216441656e-02 2.5690805522992355e-02
      1.5323177550788339e-02 3.6047380482603530e-02
      -1.3832488399264587e-02 -4.3072015911588241e-02
      8.8383240777956132e-02 7.9015831112816941e-03
      -2.2327345376914422e-02 -1.0287931847998004e-02
      -4.3485212062645169e-02 -1.9233936174436410e-02
      1.0150419720847143e-03 -1.4504514707830285e-01
      -2.6088316238233898e-02 1.1802292676499694e-01
      -1.0757308437073548e-02 1.1047918247202705e-01
      -2.1700919658301777e-02 -7.7641916321862958e-02
      3.0247084358954120e-02 -3.3102311218320850e-02
      4.7877700477090973e-02 4.8016239650384734e-02
      -3.4555191282210886e-02 -7.9122947192589624e-02
      -4.1505808724550425e-02 -3.9137316642533011e-02
      1.1817683625680959e-03 9.2592821637420039e-02
      -1.0221284930104144e-01 1.4505137368082133e-01
      -3.8782916240200201e-02 6.4309505276028962e-04
      -2.8772612105753725e-02 3.4105201000985352e-02
      -8.3343315907119145e-02 -2.3605022723779755e-02
      -4.8253040428982819e-02 -6.7956872245296632e-02
      4.5321551264020078e-02 6.9830829484114704e-02
      -1.3435853783028844e-02 7.1173808856150433e-02
      -5.7305381292561887e-02 -1.1039945688146452e-02
      -2.0348801704336804e-02 -3.0641088974003805e-02
      7.9077770330858888e-02 -1.4273316178552858e-01
      6.6103066779309595e-03 -2.1125554826245042e-02
      -2.7726174860720328e-02 1.4159007752550860e-02
      9.8233373760654039e-02 -3.2601755303326577e-03
      5.5081834933583956e-02 -1.0778995882417754e-01
      -9.5273905421077165e-03 2.9251137388194053e-02
      6.6144306088705820e-02 -7.6487871762436044e-02
      -3.6407704765791943e-02 2.1042945076637089e-02
      -5.4219691354891957e-02 6.9970238003258703e-02
      -4.4749353666165961e-02 4.5017970655084831e-02
      1.6944111501723161e-01 1.5102308971680939e-01
      1.3474960525291474e-01 -1.3371209776160834e-03
      5.5221542611087063e-03 7.3662826952574131e-02
      -1.6091820658363820e-01 8.5410405135110001e-02
      -6.8987502002967591e-02 5.0678922727953504e-02
      -1.0623484613695956e-01 -8.7666745437640331e-02
      7.8950558863810694e-02 -9.8291946509019859e-02
      2.9791264136307706e-02 -7.3618249928610921e-02
      -6.8244523969978099e-02 2.5052663269091703e-02
      1.5903683847132057e-02 -2.2178042087104728e-02
      2.0336612424273863e-02 1.3133111147914463e-02
      4.6461343275607803e-02 3.9322320046017515e-04
      -4.4198768413401757e-02 1.0254210204936175e-02
      1.5704500735908900e-02 2.7148278474803663e-02
      -3.3718571527048657e-02 5.8110367376719270e-02
      -1.5685505873877910e-02 1.5275179766081349e-02
      1.1131898967511740e-01 7.2060603520442801e-02
      7.0352545396198840e-02 6.8948531594372683e-02
      -5.4981484166374839e-04 -1.6888364359242825e-01
      -2.4918072852573237e-02 -1.2024776033561529e-01
      -2.2917666906799243e-02 1.6839538858428656e-02
      4.0735090454509647e-02 -4.9735688201384173e-02
      5.2600555519725506e-02 -3.0180199065717620e-02
      8.3504733395336261e-02 2.9894977937239667e-02
      6.7852185214918787e-02 6.5280893269802034e-02
      4.0124399404485468e-03 2.3786913781258932e-02
      -6.0842862053773379e-02 1.1150831879280277e-02
      -9.7253508828858110e-02 -7.6034007084478508e-02
      -6.8780465457419504e-02 -1.4305206782735361e-01
      -3.4263081481013077e-02 4.5552517400955742e-02
      -9.7920066913805934e-02 -7.5128551246328779e-02
      3.6289034027415581e-02 7.4491941895376723e-02
      -6.9143162810810597e-03 -5.3863822724534105e-02
      7.3623610381529439e-02 -2.6928171524130372e-02
      2.8641472291752047e-02 -6.0677740292560928e-02
      -6.7980178816508835e-02 -1.7478849116357695e-02
      -4.0755340536588990e-02 -1.8356208553728770e-01
      -1.0477905374628328e-02 4.4860006812133653e-02
      -8.4793874515538187e-02 1.0469519949511040e-01
      -3.5490178032400226e-02 9.9401460782716916e-03
      2.0638593208810129e-02 -1.6939910133080847e-02
      5.3079166901802824e-02 -4.2517437901535039e-02
      -9.7668660413474662e-02 -1.3752626355404815e-01
      6.4364105402400243e-02 6.2671666933844072e-02
      -1.7093351172191355e-02 1.1788696945711008e-01
      -5.0326656980653078e-04 1.2584219842771283e-01
      1.7635978369532759e-02 1.5345385758821434e-02
      -1.0527181133153092e-01 7.7521133121985733e-02
      -3.3520412853684609e-02 4.3790424509010363e-02
      -6.1381140705938732e-02 -2.8218412351351259e-02
      1.3647311140928695e-01 2.9920272207011728e-02
      -4.2796867500340861e-02 -4.5852936313330053e-02
      4.9159968579024060e-03 -9.1757053161643190e-02
      -1.2265032364508861e-02 -7.8711364548911963e-02
      6.1034129375263528e-02 -6.8632382076310783e-02
      7.6193247350272761e-02 -4.4089837762151675e-02
      -8.1721457414307211e-02 5.7602470469369907e-02
      4.2488752101196278e-02 -2.6639050339565672e-02
      -3.0108140547189226e-02 -1.5857584795755393e-02
      1.9844543198522962e-03 -1.3874680504528785e-02
      4.1921526234134643e-02 -1.1157979297524259e-02
      -5.2417949168827548e-02 4.4537433086484196e-02
      -7.0130207647571257e-03 -2.5230566825352616e-02
      -4.6331660806157381e-02 5.3300205112584702e-02
      7.4293217281546003e-02 -2.7131792625007360e-02
      1.5798459386003205e-01 -8.9755993574292259e-03
      6.2701241421221174e-02 -4.1793085194712892e-02
      -3.9181963145018463e-02 7.4979560209735729e-02
      -7.2678302830087027e-02 -4.1417256020333228e-02
      -3.0815309843299710e-02 -9.5402804071579379e-04
      9.6582104785292763e-02 4.0507582363251547e-02
      6.9808931878232686e-02 -4.0058017672815902e-02
      -4.7239844410518969e-02 1.6536507109284577e-02
      -2.6774848438762665e-02 4.1993061097553873e-02
      2.7665796764906853e-02 5.1199662385155373e-02
      3.1990741270652420e-02 -5.9750696033637474e-02
      -4.0752921585201088e-03 -7.6807755993963889e-02
      -7.1586775485310203e-04 1.6466096448372675e-02
      1.1816607991504307e-02 7.9308335440362074e-02
      -5.2328752753869256e-03 -2.9968401898338055e-02
      6.7249540032660329e-02 6.3708693813776821e-02
      7.8180243577643659e-04 -2.1031431852444331e-03
      -2.2338405415368499e-02 -1.2235454682137423e-01
      4.5468314042096905e-02 -1.1817010997183899e-01
      3.3915221292605282e-03 8.9737216825878999e-02
      4.0460176915879331e-02 -2.5189173603410112e-02
      1.2907213730682585e-01 -5.8513473636764776e-02
      1.9631974946855032e-02 3.5001131417100664e-02
      1.5715189224552360e-02 -2.7577419565209052e-02
      9.9113369577982516e-02 2.4881885045347177e-02
      8.0701553773853221e-04 -1.4843370213526321e-02
      -4.7115141575952646e-02 -1.0033290730123515e-01
      -9.1089033001384739e-02 -6.6137327341320717e-02
      2.7543479808618637e-02 -5.6592758209025366e-02
      -1.6856161312418902e-01 -1.3363138269849742e-01
      -2.0033003985250056e-02 4.3847503743314489e-02
      -3.2171073994568387e-02 -1.1764910646532414e-02
      5.3985236211010625e-02 7.5119952585823532e-02
      -2.1433237840772879e-02 7.5334456908018890e-02
      2.9657342162012094e-02 -5.1032943551101412e-02
      -6.9767059655377286e-02 -1.1084728106520658e-01
      2.1802839850849163e-02 3.6808402017714410e-02
      -9.8728025698495023e-02 8.4815728973330631e-02
      -4.6476823190134908e-02 2.8368830663989132e-02
      -1.9094297350451903e-02 1.1824984701802436e-03
      5.5415352639668333e-02 -7.2139986119916108e-02
      -8.2545062441093692e-02 -1.5573396676864903e-01
      4.2639842190127564e-02 6.5625156731567935e-02
      -5.0333240311329991e-02 1.2768887037334217e-01
      8.7424142850570166e-02 1.1423544715507850e-01
      3.4179781953584717e-02 -3.3605755490732814e-03
      -1.2580107847640531e-01 6.3241865181883197e-02
      3.5626057895641848e-03 7.9803701549998426e-02
      -1.9611444919382607e-02 -2.7421120168248134e-02
      1.6299080495293750e-01 -2.1713554240537718e-02
      -5.4082783769024576e-02 -7.7652088261553689e-02
      8.7873171895626032e-02 -3.1654257179424390e-02
      -1.9679197032307052e-02 -1.5009339355997336e-01
      5.2811497433783008e-02 -1.2895387943336134e-02
      5.6316777473879975e-02 -5.1617295986626066e-02
      -9.5288753438881282e-02 6.1668426455613060e-02
      5.7824836702232457e-02 -3.2070615558555712e-02
      -5.1487049221970289e-02 4.2687239186007267e-02
      5.6836820766455992e-02 -4.0324812527729785e-02
      6.6844523118283164e-02 1.5103724534878380e-02
      -3.6036625690979755e-02 6.8960816897029459e-02
      -7.7656961217865391e-03 -7.1802003392673133e-02
      -7.5274952788327220e-03 3.5812101348602556e-02
      -6.8320095004658988e-03 -4.4188372401645318e-02
      1.2647317226197563e-01 2.2489844502582422e-02
      5.1237532484120857e-02 -6.7149092837364047e-02
      9.8562508872334781e-03 7.1249031113622810e-02
      -6.0224373682666116e-02 -3.9726222817764393e-03
      -4.4797445832531119e-02 -2.8404439782430478e-02
      8.2128238255464683e-02 3.5540535581784799e-02
      4.6816299391220846e-02 -3.8879387941399744e-02
      -6.2894732667515718e-02 1.5535947100353789e-02
      -8.2845263054460036e-02 8.3277662848199430e-02
      -3.0338773708959408e-02 6.5120215915848254e-02
      2.8109221169241028e-02 -8.3362228991737411e-02
      -8.0933272250133057e-03 -1.4178341838692188e-01
      -6.8057239714353499e-02 5.8316752452965831e-02
      1.5164967304597128e-02 1.3764446805912922e-01
      4.8154291032055541e-02 -4.7740454281086649e-02
      2.5975461365527485e-02 6.2136715531660482e-02
      -2.3937936874295296e-02 -4.4053693054500791e-02
      -5.5775370095544452e-02 -1.6708036620919087e-01
      3.9313372251417178e-02 -7.8972754875181544e-02
      7.0719272887946726e-03 7.3759173409647882e-02
      8.4773363601964455e-02 -7.9665145581353708e-02
      1.5129895558311005e-01 -6.0724063553220235e-02
      5.2715016270019711e-02 4.9953148440127999e-02
      3.0803591690157406e-03 -6.9702602022967561e-02
      1.8207574570796287e-01 1.5047439657116917e-02
      8.2862658273369305e-02 -2.1414198921922242e-02
      1.3123745273621958e-02 -6.1171678033962368e-02
      -1.5204607869039397e-01 4.8590250399347407e-03
      5.0284619676618535e-02 -6.9779088185321858e-02
      -1.7705454325286657e-01 -1.1035686447015407e-01
      -7.7267311470697139e-02 -6.4164064234849159e-03
      -4.4311358890701751e-02 2.1794253893878523e-02
      4.4339236066756271e-02 8.7100581695702561e-02
      -4.3969872382341853e-02 1.1454936368315977e-01
      3.6179736595772803e-02 -8.2447876160810785e-02
      -5.1110072308668389e-02 -9.2974095041036223e-02
      1.1321797828424386e-02 2.1360099929883348e-02
      -7.9983085740487375e-02 8.6210062506082999e-02
      -2.8023544721188856e-02 4.7431741852658693e-02
      -1.5182119830133425e-02 -2.7717528134457593e-02
      1.6381309845616165e-03 -5.7036493407523647e-02
      -6.9948334756644887e-02 -1.2428884543031078e-01
      3.9698979723048977e-02 8.8143758964097291e-02
      -2.2709883930176564e-02 1.1814551013493224e-01
      9.7608568082670960e-02 1.1523380068058880e-01
      5.3806373650540626e-02 6.7862448583611958e-03
      -1.0270678913077150e-01 5.8877761099280126e-02
      3.1244155617189781e-02 4.9183897406543088e-02
      -1.6947077787498866e-02 5.8496206908540261e-04
      1.3657758326586561e-01 -1.5313400525433325e-02
      -3.7082060779282285e-02 -3.6511516764414678e-02
      1.0667145443269752e-01 -1.5362061378030631e-02
      -5.7497848738088230e-03 -1.1401088067389854e-01
      4.1846514018084410e-02 7.1799530773603128e-03
      6.0182836129579621e-02 -4.1865706071105131e-02
      -8.3056574972287134e-02 5.9087002755801400e-02
      3.6730504567450389e-02 -1.2972371592191514e-02
      -4.4236740115038309e-02 3.5516925811592381e-02
      3.8660685802230345e-02 -4.2746021376824671e-02
      6.5220675023632366e-02 2.8578025839184420e-02
      -2.8111503880211986e-02 4.4967941830331350e-02
      -1.3276564722625634e-02 -4.1112254384215320e-02
      -2.7565435021338156e-02 1.5131444943830312e-02
      -1.0476266532308985e-02 -3.2068370550897042e-02
      8.5207734963323248e-02 5.5837512282266182e-02
      2.6555036780728656e-02 -6.2358314001798566e-02
      2.1976250186764228e-02 4.3524403311268993e-02
      -1.2844848920488242e-02 -1.5422789718605565e-02
      4.7602520534858013e-03 -6.4030543257879144e-02
      7.7047093216049370e-02 2.3900629362404325e-03
      4.4367697185013488e-02 1.8109081055632022e-03
      -2.8087420977448062e-02 1.0674214509835399e-02
      -6.2473014719466514e-02 9.0478752223315709e-02
      -4.3868240690876165e-02 4.7057703882479179e-02
      3.2472170162447599e-02 -3.0819627960172964e-02
      9.2016736766485484e-03 -9.1987401974570490e-02
      -3.7369900479181088e-02 2.3113202720554279e-02
      2.2604032349002944e-02 1.0561484105359450e-01
      1.3209428808847245e-02 -5.2899358673759084e-02
      3.5748646029403149e-02 5.9801427250522531e-02
      1.4641737702406768e-02 -3.9236591545972047e-02
      -3.6671163837131406e-02 -1.5424150779134116e-01
      2.5592417069818133e-02 -6.2774171557592226e-02
      1.3007727464119097e-02 5.8199378740406857e-02
      5.3373160517544017e-02 -6.2038751024874626e-02
      1.0190574080978659e-01 -6.7890344625663887e-02
      5.4170423027249254e-02 3.1210889775995735e-02
      -1.2964715792668670e-02 -3.5197329007162589e-02
      1.4578974517801180e-01 2.5882911478729790e-02
      9.9481379668468206e-02 -5.7707002790182750e-04
      3.0916492998833735e-02 -3.2588093532898162e-02
      -1.3954914408353561e-01 3.1294208410057160e-03
      4.0416388050044334e-02 -6.5825720967031709e-02
      -1.4185714610199351e-01 -7.7060977152755020e-02
      -7.6795337720004325e-02 -5.1271002287356640e-03
      -5.6618544629330775e-02 -1.7659891758987158e-02
      -1.5665164722331103e-03 6.6139940668442171e-02
      -2.9928786457575074e-02 8.0214463494255220e-02
      2.3507072746242946e-02 -8.1566066438366502e-02
      -2.4273605457093020e-02 -8.9026865686673645e-02
      2.8861507715875973e-03 2.0717271754218419e-02
      6.4511252857111477e-03 6.8257688593776789e-02
      -2.4305917769491051e-02 2.8804793645147271e-02
      2.7218830844742092e-02 -9.6975407121225547e-03
      2.5101889583351720e-02 9.3898875402039193e-03
      -3.0659138956422197e-02 -7.2125199834160325e-02
      1.2375462083649296e-02 1.4464448124403255e-02
      -5.2480283902434220e-02 8.7976947370817890e-02
      5.9593068326638327e-02 5.3967368420053903e-02
      7.4957475943771964e-03 1.5424480913678299e-02
      -7.4544222177300640e-02 6.8241688918590865e-02
      -1.3282333649700113e-03 6.0146016230632586e-03
      -4.8132521798657348e-03 1.2187277084284784e-02
      7.4137548996162414e-02 -6.4840271818862628e-03
      -2.6630057519361750e-02 -1.1659235303136516e-02
      6.8563829281866079e-02 2.6269620933172196e-02
      1.0449257418867463e-02 -5.2783628518146754e-02
      2.8691515357520021e-02 -2.5351264158805648e-02
      3.6706227002754069e-02 -1.4986774877877130e-02
      -6.3837178998114738e-02 4.3076135163255820e-02
      7.7527866236859463e-02 -2.1292730502686569e-02
      -2.2239573704897707e-03 3.2553219407325477e-03
      2.1486905829672262e-02 -4.0805005297921644e-02
      4.1061228273316520e-02 1.9662298128175940e-02
      -4.8331738672728344e-02 1.0889455056300708e-02
      -4.7299542730558551e-02 -1.2392225869420003e-03
      1.5847075886257507e-02 5.2937280612884587e-02
      2.4372199268836939e-02 -5.0372719466222973e-03
      8.8407916898711955e-02 6.3229134570289447e-02
      4.1614192228308262e-02 -2.4099102639539960e-02
      -1.6093232463729821e-02 1.4158040910819829e-02
      7.5804087437290968e-03 -2.0883623289761555e-02
      -1.0329245117905641e-02 -4.7908893938918659e-02
      1.3188307495518503e-02 3.8788350361086854e-02
      8.7366883039651493e-03 -1.6683835282678246e-02
      -3.1693325911456099e-02 -2.8192959998974303e-02
      3.0760623680635642e-02 6.5287062233475718e-02
      -1.8372403070637148e-02 2.9864023957159994e-03
      2.9109424812256046e-03 3.4093355378493916e-03
      7.9687620871768255e-03 -1.5482626949310994e-02
      1.9419246863587928e-02 2.5393794415365441e-02
      5.8104735764032420e-03 6.5185615030529054e-02
      2.9575148760516375e-02 -3.2448828645799503e-02
      1.2392996265254003e-02 5.0522781790974067e-02
      3.1748048279080857e-02 8.0003445250951873e-03
      -3.1174262215255878e-03 -1.2390505502983082e-01
      1.6388577409426078e-02 -5.1423026282729399e-02
      4.4168521724775476e-03 3.5603085612857160e-02
      2.6580117762077065e-02 -5.5700071338968309e-02
      1.3955850983324181e-02 -4.3338262496102953e-02
      7.7114874185886639e-02 3.4662466645639955e-03
      -5.3223195285121774e-03 1.6067450741320169e-02
      4.5007196140239084e-02 3.1448148346404435e-02
      5.2645346849333446e-02 1.5448027255808662e-02
      3.0642355259453365e-02 -1.7914811442992510e-02
      -9.1099070755649617e-02 4.6501659345829695e-03
      1.2750627323951142e-02 -2.3801310695518923e-02
      -9.3355465434123472e-02 -6.8280174327119025e-02
      2.8592078700009570e-03 1.0305135677551092e-02
      -3.2906369074445656e-02 -1.9978535948530930e-02
      3.0610165604852062e-02 -8.1013858245293970e-03
      9.5692083083873374e-03 4.3672739948145987e-02
      -5.4689688659344572e-03 -6.9976872819775784e-02
      -3.3597906861801662e-02 -2.5786285722717250e-02
      1.5934562276755680e-02 7.4147175856734443e-02
      3.5282024982598192e-02 5.9715665661338853e-02
      -7.0438622464913156e-02 -1.6935223985133280e-02
      -2.5235122690935111e-04 4.6077028294666273e-03
      7.5834992554863520e-02 2.9020486590919312e-02
      -2.0684594771129685e-02 -3.4804782426533861e-03
      -4.6874144643772646e-02 -2.0645444871465638e-02
      -6.4149540884660364e-02 8.2544896579066454e-02
      2.3435285860325498e-02 1.2986572059858328e-02
      2.0148417803977019e-02 -3.3937492796852792e-02
      -8.7346478933832059e-03 1.5164533129450498e-02
      -9.0550789263192613e-02 -9.0383005736090986e-03
      1.2033242259162233e-02 -1.6112520109780974e-02
      -3.0699075063262905e-02 5.8891704582146407e-03
      2.8882017974257271e-02 7.2963447454273911e-02
      4.4468933334675748e-02 4.8508598242727304e-02
      -2.6460816135142465e-02 -2.7403083288446452e-02
      2.7084078139625982e-02 -2.6490221672890883e-02
      -7.9125588026154631e-02 7.2057771717717198e-02
      -5.4265793821568493e-02 -1.8440702577728792e-02
      1.1088260470749428e-01 -3.9848910227636189e-02
      8.4656837867937762e-02 -8.4316608815259722e-02
      6.2531254704979319e-02 2.6580051827225339e-03
      8.0022632498294902e-02 2.1449061759703625e-02
      -2.3491278559466311e-02 2.4188024977728974e-03
      -7.9826213039720970e-02 -1.4424849351905096e-03
      9.6228428166508298e-03 2.0546603847198284e-02
      3.6764193659556847e-02 6.4950644270875088e-02
      3.4208315538217619e-02 9.0212231575835147e-02
      7.1588696118278741e-02 9.9546891456681729e-03
      -8.6881415059518102e-02 3.7254572599496320e-02
      2.1403134475746179e-02 3.2068175883958488e-03
      -7.1719814349910510e-02 -1.3022060870099605e-01
      -1.0025008275605129e-02 -3.4080360748751655e-02
      -2.7451409876420283e-02 -4.0018488360724922e-03
      -6.1429966535320015e-03 -5.5850635436467323e-02
      2.2033515474487939e-03 3.2246858931478280e-02
      -4.1547179663689704e-02 -1.9774444584739689e-02
      4.7096945860218261e-03 -5.7628764162089648e-04
      -4.4471599136551909e-02 -8.8855500721887835e-04
      -1.0479476621447298e-02 2.4172216543676694e-02
      -3.8523795714246370e-02 -1.4416753596370287e-02
      9.5123587897628079e-02 9.9687503044455422e-02
      -2.8407221047205325e-03 6.1456943058622038e-02
      4.7540410018342166e-02 5.7636890571904936e-02
      4.4726607755720682e-03 -1.1068974918624400e-01
      -3.8737861243929222e-02 8.6049221680935348e-03
      2.2424708536632559e-02 4.5863533357168203e-03
      -4.6144148478259716e-03 -6.2998149133467185e-02
      -2.0766441399851007e-02 2.8556075718999360e-02
      1.5392226934237391e-01 3.8331406832393979e-02
      -1.0496904731220837e-02 6.9641495469698930e-02
      3.3946334059910370e-02 -2.9679238265387257e-02
      6.5209899228012680e-02 3.3643015242499109e-02
      7.2089948951626888e-04 2.1721606685489898e-02
      -3.3841393528645604e-02 -2.6663377297103552e-02
      -2.3432785916919826e-02 8.9002692518701507e-02
      -1.2297890526034271e-02 -5.3444620921485018e-02
      -1.1073998748656968e-02 2.3078916157036680e-02
      4.6415250899579194e-02 -2.7761948434251775e-02
      2.7785513110313721e-02 -7.1872218577109764e-02
      5.2563628534633401e-02 -4.1571789903847604e-03
      -4.5802163175997994e-02 -2.2532119722441249e-02
      -3.8063781898011829e-02 -6.3159267826223386e-02
      -8.5868982087970638e-03 4.7118425863615233e-02
      1.8397383531602515e-03 3.2271615467439438e-02
      -2.9249190570900828e-02 3.0668064927111688e-02
      3.1669256584806620e-02 1.8175668966723981e-02
      6.1114778734408300e-02 3.1813513762251874e-02
      6.0079347950909795e-03 2.7836883683571807e-02
      -2.0072695447191952e-02 -1.4874706380613797e-02
      -5.2404083766380144e-02 3.7014918587605264e-02
      4.7142894181367315e-02 -3.0668635520383833e-02
      -1.3392341464795396e-03 -9.0122897427707873e-03
      3.2026421058718751e-02 -2.2352610134870745e-02
      -2.0973799805485482e-02 3.7058852715910702e-02
      5.5388350293676209e-03 -2.5395410945984196e-03
      -5.3025534576204153e-02 -5.5803620241730370e-03
      2.6111223314592615e-02 2.5759186855549371e-02
      2.1581337883815416e-02 1.0413130723591668e-01
      -3.7662622318876578e-02 -8.1247148981422081e-03
      -6.9879258661790788e-03 7.5197937752689561e-03
      -3.3295030414293179e-02 4.2970585979929768e-02
      -2.0777208473371944e-02 -4.4922633858150254e-05
      8.4643116348688402e-02 -2.7393497099435501e-02
      1.7162645228922142e-02 -7.4430295677064814e-02
      1.0833645367418550e-02 1.4177821408593392e-02
      4.3953721773518820e-02 5.0820371775112151e-02
      -1.6413535192403149e-02 -2.7734688184794713e-04
      -8.5139328333000818e-03 -4.5690291760119009e-03
      3.1353986116373397e-02 2.0601644201450465e-03
      -3.4833207717761237e-02 2.7215303852955619e-02
      5.6942169096903094e-03 4.2367377638299272e-02
      5.9742614780383237e-02 -8.7172727712393396e-03
      -2.8394479750380220e-02 3.8747794840262272e-02
      3.4594079132085338e-03 -1.2701803940944023e-02
      -7.5273209344123044e-04 -5.5916695122585625e-02
      -2.6234514972939511e-02 -8.2680454207225584e-02
      -6.1868477936906509e-02 -4.3035138364734054e-03
      -2.7461928061512535e-02 -4.2237009502345949e-02
      9.7543223235264237e-03 2.4495617416444689e-02
      -5.6029591912218339e-02 4.6838562434248403e-03
      1.1843963735911166e-02 -8.9603753776267194e-03
      7.6559086876786964e-03 4.4170734093780160e-02
      -2.8798367243218141e-03 -2.3915439190325969e-03
      -2.5646494568677826e-02 -6.6712475984795454e-03
      8.4806275295133987e-02 5.8874105607473505e-02
      2.4715610545864932e-02 3.0376632626836375e-02
      3.5134107852032193e-02 3.5017761099827460e-02
      4.0774932482277402e-03 -7.0211219057288568e-02
      -2.5957654922632488e-02 4.6852540679048711e-02
      2.9653926593618856e-02 8.7293711429812793e-03
      -1.8929849605745511e-02 -5.0666493646296891e-02
      -1.7705417385030602e-02 1.1727558403649562e-02
      7.7821796368596305e-02 3.5738198030211572e-03
      2.5093853140297134e-02 7.9268287141117874e-03
      3.6900898098972464e-02 -2.6941044808770947e-02
      1.8017620551855257e-02 1.4251200314998547e-02
      2.7871662893680534e-02 3.3692893431484940e-02
      1.8460080221718845e-02 1.0269035376391112e-02
      -1.7112868533475364e-02 5.6893738695356216e-02
      1.0227283843433721e-02 4.6067997883034341e-04
      -3.4063338089581459e-02 -3.0477111150871546e-02
      2.2950423243620129e-02 6.3887925053320556e-03
      2.6677060180325524e-02 -3.4748738861042225e-02
      7.7139439651236433e-03 6.6433405991787623e-03
      2.6733084245817119e-03 1.5491198788621237e-02
      -1.9071243495076218e-02 3.0676448229474660e-02
      -2.0588664760928740e-02 -1.1952401221760981e-02
      -1.9804002098306552e-02 4.7104045275651041e-02
      5.6512126287270432e-02 -2.2568903269781428e-02
      -4.7489375068991112e-03 -6.0878755507459643e-02
      -1.1250942758927532e-02 -2.0260363716575438e-02
      -2.6381306924615867e-02 -5.0764308793787849e-02
      -3.0261104242444042e-03 -6.5106720024237742e-03
      6.7195945401039231e-03 4.0920147638316244e-02
      -8.9527248419643102e-02 3.4396338796644499e-02
      -3.3622797136651533e-02 8.6447977767097270e-03
      -5.7253304385333159e-02 5.8523883189870174e-02
      1.0167883197939837e-02 -4.2627477821093225e-02
      -4.3997991409583263e-02 -4.2533321109621179e-02
      7.0559283095606154e-03 7.9444358644247710e-03
      1.0550102919182546e-03 1.1334246555378168e-02
      -1.1030299476576000e-02 -2.5768958860240377e-02
      4.0295309538317142e-02 -4.6471519141218762e-02
      6.6895737560184243e-02 -5.9410771258180971e-02
      3.6376671714818658e-03 -4.3538947615879939e-02
      -1.0507405147052114e-02 2.4237722982441419e-03
      1.2929032709324453e-02 2.3200534317120821e-02
      -6.3850332026899728e-02 -1.6884393903245674e-02
      5.6092970776422686e-03 4.0105097601766428e-02
      1.8390281616455270e-02 -8.5979123459315257e-02
      -1.7985187660184702e-02 -1.9324306503581572e-02
      3.3614580714777985e-02 6.5511284986624438e-02
      -1.7882462188274636e-03 2.7850968537406050e-02
      9.0691523432684829e-02 7.1508032827857046e-02
      4.8642910583823827e-02 -2.5349888911075657e-02
      1.5372743281114680e-02 6.4112673208312640e-02
      -6.0654598590359994e-02 5.1183348321196746e-02
      -4.4607250964194260e-02 2.8918043867134546e-02
      -1.2821935291718427e-02 -8.6769022299982620e-03
      1.8920971147479898e-02 -9.2778559635781997e-03
      4.7284830880171332e-02 -2.5370081058717343e-02
      -3.8544768460704690e-02 1.0219723281840298e-02
      2.5852759875388893e-02 6.3784137409793242e-03
      -8.6706533930544245e-03 -5.9214208006386493e-03
      1.9300957066791906e-02 -3.6411215313459887e-02
      2.0771259246594644e-02 2.1987583646444511e-02
      5.3103028590031996e-03 2.2622352900645799e-02
      -4.7218568103668181e-02 3.7381974258370289e-02
      -6.6951197690312367e-02 -2.7099985431449137e-02
      2.7783373233985175e-02 4.7209029906906001e-02
      -2.7678186821532776e-02 1.1090532561422351e-02
      -2.8671297839035693e-02 -5.3019866236117041e-02
      2.3267027176344456e-02 -2.9187581221940193e-02
      -7.1128722736571212e-02 4.1209176976034706e-03
      1.6763629351752164e-02 -3.2786824538510742e-02
      3.3130629428959231e-02 -3.9892486599902889e-02
      -5.7165066114234254e-03 2.1619384822712431e-02
      3.1883687080443847e-02 5.0035902179182433e-02
      2.8446641942028325e-02 -3.1646122071712635e-02
      -5.6629253234147879e-02 1.2458325612449269e-02
      -5.1089989568643544e-02 -3.1244729215270491e-02
      -6.4350217247657396e-02 -4.8687141032804138e-02
      1.9939541807057062e-02 1.6255876176034131e-02
      -4.7660733334125301e-02 3.0516402884709668e-02
      3.1963579448084860e-02 4.1157394239888200e-02
      2.0438305525534311e-02 -6.3780962283928960e-02
      5.2227542579884573e-02 2.0848467495923822e-02
      1.4846720601632795e-02 3.5211767361130714e-02
      -6.5762922713835367e-02 -1.7828219864288990e-02
      2.1013740089955231e-03 -6.6962738928353957e-02
      -5.3658303288942062e-02 3.6130649885298192e-03
      -2.1195419550741716e-02 3.7244929849627163e-02
      4.7002900321338907e-02 -4.5160782014366093e-03
      1.2688573850586835e-02 -5.1106822309246500e-02
      -8.6931906812277287e-03 -3.0650754141913358e-02
      -6.8498960640855241e-02 -2.8916212986941293e-02
      2.6895511055033985e-02 -3.3877062404505964e-03
      1.3165507800487865e-02 -8.1711047456043354e-03
      -1.1953891936916435e-01 -1.9044907789911868e-02
      -6.1850534584283728e-03 4.7067168841503698e-03
      7.1641187116797790e-03 2.5604006939078411e-02
      -4.3395254134949218e-03 -3.9714722170075448e-02
      -5.9161507145497880e-02 -1.4197902007055370e-02
      -8.8846118284411010e-03 4.3736336061422944e-02
      -2.1248596509569673e-02 4.5233828080423283e-02
      -9.8646132484825816e-02 -1.6230035629138006e-02
      2.5578674635581732e-02 3.4085651648259309e-02
      3.2547581089930916e-02 -8.9955970091275261e-02
      -6.8702180121334444e-03 -8.4905748863311360e-03
      -1.8714525607496542e-02 -1.9319868665474929e-02
      -1.9518053080024262e-02 -1.6166942744307793e-02
      -4.5340561203833117e-03 -6.3895764482562456e-02
      -4.4115951886227432e-02 4.4761170418936277e-02
      -3.9530641693149723e-02 -7.6358438026710856e-02
      -2.7227208403901051e-02 -1.6551677539505781e-02
      -2.7822769056053031e-02 5.4192756320467231e-02
      -3.5960379034552670e-03 -2.1042254378430016e-02
      7.3364190322251402e-02 1.3527740204167546e-02
      6.3064672966372290e-02 -5.7346070678253910e-02
      9.4354558253785577e-03 7.2479450113103402e-02
      -8.6972299022049213e-02 3.9416589646902950e-02
      -2.1218393343807311e-02 -1.8805538387520065e-02
      -5.6263015833876604e-03 2.5720721214376741e-02
      1.4126538699118877e-02 -1.4076889933522256e-02
      1.6418794178086848e-02 -3.8121858611372184e-02
      -1.7021087557078764e-03 4.1713336145407107e-02
      9.4625943369902495e-03 -5.2315956771123107e-02
      5.0495083620861879e-02 -1.0117067193891747e-02
      -2.0191049498803943e-03 2.3708735290682001e-02
      -1.1242476607732231e-03 5.1785702431132938e-02
      2.6503119036267963e-02 -1.9344412136950418e-02
      -3.7489281274816745e-02 -2.5567571555624072e-02
      -8.6137177681981619e-02 2.6629539708924170e-02
      1.4975699534532457e-02 -6.3846285939793100e-03
      1.0293867522084874e-02 -2.6456491488506522e-03
      3.6587901453494012e-02 -4.0355445051391357e-03
      2.3295173394135102e-02 -3.3464510930919851e-02
      5.5008380803193693e-03 5.2491945553202312e-03
      -1.9590919278389986e-02 -2.2128998903488628e-02
      2.0448317625604059e-02 3.6706586952186121e-02
      -2.3640206522221680e-02 1.6456824697492836e-02
      3.8940931949813094e-02 1.1449550322574886e-02
      1.9858167176873883e-02 -2.0329573270359202e-03
      -9.3579398175216211e-02 2.1460119943442699e-02
      -8.7755424991307382e-02 -4.5493420760388308e-02
      -2.7535599135538904e-02 3.1945033931244705e-03
      -1.3605018714673622e-02 8.6299145862199691e-03
      -3.3166926819131526e-02 -2.5028046681206729e-03
      2.9817713078872300e-02 2.2499020489149750e-02
      9.7342546700335889e-03 -2.8834188513524723e-02
      1.5540489080316302e-02 -2.1566542364406378e-02
      2.5407178622677126e-03 -6.2296651698739436e-02
      -6.0092802755103876e-02 3.6659074976689375e-02
      -4.8341556680888208e-02 -6.2842933755613048e-02
      -4.3594315625796062e-02 5.6600092920918700e-02
      -3.4331054785959041e-02 2.6421494768388405e-02
      2.4163810559985729e-02 -9.7178327883367058e-03
      1.5766785216210208e-02 -3.8564022246849292e-03
      -1.4499355257663670e-02 -1.6409932740539621e-02
      -1.0382925460780439e-01 -7.2641311768868830e-02
      5.9966674869109386e-02 3.7595595811480392e-02
      2.4538834879031517e-02 2.6389140333187185e-02
      -9.4741479390552524e-02 9.0177404403281192e-03
      -2.1629218841302332e-02 3.4243045867572180e-02
      -4.0397998829979617e-02 6.6296020060834293e-02
      1.9675514625285589e-02 3.1025479974302911e-02
      -8.0857370321360103e-02 -3.7588102317633702e-03
      9.7729938125316509e-02 3.3097261770998671e-02
      -1.3668800817379154e-02 -7.5505097252303296e-02
      -4.0870617278260885e-02 -8.8618760109254957e-02
      2.7739545427316374e-02 -2.7374130694330319e-02
      6.6068728637879520e-02 -5.1965523085331228e-02
      3.3707472148541279e-02 -2.4347008335446663e-02
      -2.2897479210929508e-02 -1.8586199346301128e-02
      -3.7322549840041956e-02 -3.8359639791179075e-02
      -5.0924606021752444e-02 2.1316146219000999e-02
      -2.3980349411607843e-02 2.6666177146475952e-02
      -5.2716562048456513e-03 -8.0071188318601383e-02
      -5.3588365533790722e-03 2.3012482492569576e-02
      -1.2915725255150719e-02 1.3533368918674344e-02
      -1.1654323994473909e-02 -4.8745178635040453e-03
      7.6112619838917830e-02 -1.6961460416722692e-02
      1.0904405305687143e-01 -5.3513895608770651e-02
      2.7074916278439720e-02 1.4570410407794948e-02
      -3.1273802433148867e-02 3.4636617851159748e-02
      -7.8864838611853644e-02 -5.2899264322620453e-02
      5.0659631143681660e-02 7.0844060117814592e-02
      9.2159960870655089e-02 1.1691787404943901e-01
      5.2352402740552889e-02 -2.2520990478211839e-02
      -3.0004528516467940e-02 2.5501710270414701e-02
      -2.0964492416982988e-02 -7.1045948559235470e-03
      6.1891516261070770e-02 1.0149945474711678e-03
      1.0641942767681652e-02 -4.1157519968961581e-02
      7.9573363583776684e-03 -5.8578056845128797e-02
      2.8988799612508175e-02 2.4838357337517429e-02
      1.8794378449229075e-02 4.9409642568591615e-02
      -4.7288288002752484e-02 -1.3262646845394424e-02
      2.7582002018074064e-02 5.1194569487033839e-02
      -3.5017487051369006e-02 -3.4956342135522407e-02
      -1.1627787474781468e-02 7.3186319811625253e-03
      5.6123451564734202e-02 -6.6397735814443401e-02
      -3.9230312279216251e-02 5.3585152948087092e-02
      3.9056189188309678e-02 7.4151034866661069e-03
      8.1532707931131099e-02 -1.3139211124642709e-02
      -4.1911346485443812e-02 2.1267855126718669e-02
      -3.4684798560969199e-03 -5.6918544324808341e-02
      5.5324671875410743e-02 9.0871064527153246e-03
      -7.3125013806635553e-02 -2.4002990877090388e-02
      -9.1155472420506173e-02 -1.0120235476237462e-01
      -5.6061302831174477e-02 2.7591699219199111e-02
      5.8442840581358659e-02 -1.6417386321004986e-02
      -1.0087227346169754e-01 -8.5015802626917186e-02
      5.1161463117877067e-02 2.8436765954264059e-02
      4.7892244581474765e-03 -2.1448843649967457e-02
      5.0342218001511306e-02 3.0518935678786330e-02
      -6.1001816594688771e-02 2.1525427322947231e-02
      -4.4055482170403414e-02 1.1870057331469999e-02
      -8.1704457245924747e-02 -1.7095502969098886e-02
      1.3365703116759154e-02 7.4479865443653495e-02
      -4.5472483227549036e-02 3.0819471960169001e-02
      -2.0464294405787009e-02 -5.6046956108637774e-02
      -3.4501472283379110e-02 2.7691777276574524e-02
      2.1210696345148234e-02 -1.9928217663379665e-02
      -6.2925919784263387e-02 -9.6014365643828606e-02
      -3.0656013376519564e-04 2.5062763151696407e-02
      -8.1644717616944674e-03 1.0626855903544795e-01
      -2.4662395578306032e-03 4.4270551533819681e-02
      2.0309443851650223e-02 7.4309434690147591e-03
      -9.7910951292596429e-02 4.7444977985149746e-02
      -1.5576753480559823e-02 8.5461752191816259e-02
      -7.9310889975785379e-02 -9.3186019170982431e-02
      7.6615251638791085e-02 -4.9033812472726512e-03
      -2.6587562042153002e-02 -7.9941355427628397e-02
      9.2642591877335354e-02 -4.3867741617447692e-02
      -1.5763677549911360e-02 -1.2117460250763298e-01
      9.5300145402930053e-02 -5.7288967520930885e-02
      -2.1739347530972990e-02 -5.6421941887834878e-02
      -4.5382628985529007e-02 -5.6267240631838744e-02
      9.9219735622861301e-04 -3.4712792622286319e-02
      -6.4956633829473309e-02 1.1589414263808002e-02
      5.9622380107714944e-02 -3.0147895823245386e-02
      9.2804931062002841e-02 -8.5283252042909916e-02
      1.9725061367199676e-02 5.5621761214595826e-02
      -2.5188776639545277e-03 -6.2263574916284065e-02
      2.6942472020411567e-02 -8.2759009379812412e-02
      6.6632786915757289e-02 -2.1192254670169091e-02
      7.4778841182802952e-02 4.1560984128758187e-02
      9.1376463553225311e-03 1.0952767205032589e-02
      -6.8327851049034159e-03 2.9433979503899116e-02
      -8.8066025332625600e-02 5.1850359954656454e-04
      -1.9006593563986263e-02 -4.2333345987073445e-02
      1.2292381575210143e-01 8.2929166627233777e-02
      5.3061469437692042e-02 -4.5007109712957771e-03
      -7.7863229919619151e-02 -1.8787949115665902e-02
      -8.6746468935608556e-02 7.6292767102696821e-02
      -3.5516785663514225e-02 -2.4219676055252993e-03
      4.5590066549757030e-02 -9.3843496842146032e-02
      8.8710517118850332e-03 -1.4565010888648613e-01
      -4.8858477490074034e-02 4.9327817029381577e-02
      6.8564385112274265e-02 8.7865412221597591e-02
      2.1386590365757571e-02 -1.5759244915638966e-02
      1.9814837756506432e-02 8.4876367166371869e-02
      -5.8709284048680969e-02 -7.8030514812215915e-02
      -8.1672552657864439e-02 -5.9318739484517560e-02
      3.0230922573125207e-02 -6.7636357058947827e-02
      -5.8845314432973084e-02 5.0721543536454611e-02
      1.0511970613898867e-01 -4.2531834090232264e-02
      8.4207951647909202e-02 -7.9825377455218699e-02
      1.3591259961864581e-03 3.0792180503484652e-02
      1.6799807954150630e-03 -4.9861977514911261e-02
      1.3644353565166184e-01 -7.7640019773605087e-02
      7.9680282895515792e-02 -1.2064931905316892e-02
      -7.3937749876631528e-02 -9.5135461073297498e-02
      -9.4168594696571142e-02 4.4066155351136858e-02
      4.3873523040117886e-02 -9.0453449792129822e-07
      -9.3118831232452029e-02 -4.1369313078128002e-02
      -3.6278600683202877e-02 1.0302871547187736e-02
      4.6864140894666423e-02 -1.4922903557122100e-02
      5.3366724773714590e-02 4.9378253731858820e-02
      -8.4801412922998309e-02 5.7934117254403728e-02
      -2.2755747441988602e-02 -2.5476869740064825e-02
      -7.7430792603452481e-02 -6.1489190109018828e-02
      3.2900553576256875e-02 5.3779944701713538e-02
      -1.9127251438464696e-02 4.6625207114440605e-02
      -2.2492199534532350e-02 -1.4564073469562672e-02
      2.6902331022851619e-03 2.0318723247768861e-02
      -1.2005930100706502e-02 -3.6858008365520563e-02
      -3.2602958663558883e-02 -8.4067835004251121e-02
      -1.7256106778947240e-02 5.6842636113250085e-02
      -1.5292264022503464e-02 1.2582523083285943e-01
      5.0947739087081320e-02 1.2565987974878309e-01
      2.8379046262734395e-02 2.7644767365825506e-02
      -7.0241356444038783e-02 3.2115041102482381e-03
      2.0601704605374804e-02 5.9064421535987323e-02
      4.4302858860192362e-03 -3.8692048997507326e-02
      8.1779935090792094e-02 -3.0988658723278665e-02
      -1.7773141082239815e-02 -7.0538275472707246e-02
      1.2318505829126121e-01 -4.0365507482505100e-03
      1.8651561484786933e-03 -6.6960726121171016e-02
      7.3499751586360629e-02 -2.8631806883822154e-02
      4.5497735963151903e-02 -3.3912749572110254e-02
      -8.9797467192904074e-02 2.4092537628754494e-02
      2.4550868567503992e-02 -1.8056964308345556e-02
      -5.2604672218665931e-02 6.8013854461013420e-02
      5.7367028498722002e-02 -5.6180563280493916e-02
      8.2824784555916506e-02 -1.4894328569626089e-02
      -2.4714569711329282e-02 5.1857212472063992e-02
      -1.2417077008977017e-03 -6.5670894420521098e-02
      -2.4374631338292308e-02 -5.9547703408536670e-02
      4.9567463888905476e-02 -3.0089028766883404e-02
      5.5453003338791322e-02 4.3043692998446320e-02
      -1.8524571933910810e-02 -4.9318904993961202e-02
      3.5937924893240923e-03 1.9520429335122925e-02
      -3.7361983751369399e-02 1.3155773072634123e-03
      -3.6635124964266803e-02 -1.0622402334585379e-01
      1.0095497798598170e-01 -8.6092113650243132e-03
      3.6762869596438708e-02 -1.5374696459698842e-02
      -5.0784607947593652e-02 -3.2345065101460679e-02
      -8.1467311718172189e-02 9.1984646903309319e-02
      -4.4464827888213487e-02 2.5097041311889303e-02
      5.1105218963559330e-02 -4.2181751604660575e-02
      -3.2483992717610741e-03 -8.8310148101088212e-02
      -2.4723774151778004e-02 3.5981460636380372e-02
      3.6324540982456500e-02 7.8144543262544330e-02
      3.5458425971229932e-02 -5.7329224582998412e-02
      4.8348358563089541e-02 5.6456537198363084e-02
      -1.4584411637786267e-02 -1.3577050444626588e-02
      -5.1896675605408442e-02 -9.7658864179229560e-02
      1.5182568242914647e-02 -3.8684891980397859e-02
      -3.6613381501061401e-02 3.6482397761269734e-02
      8.7831761697728133e-02 -7.0603272663179353e-02
      3.7258845739249355e-02 -9.0675766331521315e-02
      2.0576718361288784e-02 -2.0554961366102915e-02
      -1.5225500676841003e-02 -1.1145626841046743e-02
      9.9909451555558013e-02 -2.9803535533054093e-02
      9.1949085299181499e-02 4.0194223956130726e-03
      -2.0861828685970758e-02 -5.3874791533508890e-03
      -8.0749373275202860e-02 2.0727913877499043e-02
      2.3740368065302078e-02 -2.0907739013828436e-02
      -7.2753452344484007e-02 -1.5537040143942294e-02
      -6.8718887772828863e-02 4.1816141760449441e-02
      -2.9465109132133554e-02 -3.1834048384592639e-02
      9.8449859889426627e-03 4.3597792766094094e-02
      -3.7694758806187265e-02 6.5258064844695832e-02
      1.7788868258140151e-02 -7.2516334347196842e-02
      -3.2832335230598031e-02 -1.1502594646036715e-01
      -9.0265984521209416e-03 2.2149564816438252e-03
      5.6829018740790868e-02 1.9683929688748751e-03
      -5.2597794901753363e-02 3.2068427358183195e-02
      6.3750283329597049e-02 -5.5276659816051399e-02
      -1.2632143541173024e-01 2.9667389170788174e-02
      -4.7774788612003870e-02 -7.2360427849812489e-02
      4.0275955761482759e-03 2.9407015610716469e-02
      -3.7675619082869175e-03 5.8291140116837829e-02
      -1.4589456063679154e-03 6.1567604128662773e-02
      -4.2078208668702863e-02 4.7930611576619930e-02
      -2.9690570875232140e-02 3.0519111566362327e-02
      8.6882968426254106e-02 4.2491311291971881e-02
      7.4357656950507833e-02 6.4772349643056323e-02
      9.1844696663216499e-02 -2.0941316545980439e-02
      -2.7714104482368312e-02 -3.4508247870388087e-02
      3.3685540609027495e-02 1.0075344802880349e-02
      1.2501208513767268e-02 3.9147640500695753e-02
      -2.6798822891976491e-03 6.9201145190579266e-02
      1.4411035306623518e-01 -7.0712504520801397e-02
      -4.2495086058761268e-02 1.4469096386367239e-01
      1.4544425437058929e-02 4.1102465177519178e-02
      -6.5087949953395771e-02 9.7220108379616546e-02
      -6.1191280922928840e-03 -4.2702042668973789e-02
      1.8790869613480279e-02 5.6993080946560040e-02
      -2.2724737160749724e-02 -1.5041002003548147e-02
      2.4608374605757738e-02 6.5765852624959532e-03
      -1.2936099446024318e-02 1.0366791910821264e-01
      -3.9732542103007142e-03 -3.3924659755701345e-02
      5.0067930941305364e-02 1.0420145234320461e-02
      -5.8565549362543996e-02 -6.4914969732869754e-02
      -8.5603364775832958e-03 -4.2745388187413004e-02
      -3.0143777512267066e-02 -2.9630131218180186e-02
      1.8012248823425163e-02 1.0167285334657101e-03
      1.5790004986718422e-02 -7.0793354571844170e-03
      2.4688536310174477e-02 -2.5201683806627885e-02
      2.6344335145291171e-02 -5.8621714314180057e-03
      3.9154340249536027e-02 8.6661916422622678e-03
      2.8391755419655516e-02 -4.0878220030949172e-03
      -4.7796449629747037e-02 3.0851434557148019e-02
      4.5090586427949261e-02 2.4625891717383396e-02
      4.2965353399404813e-02 1.8589551307383219e-02
      -8.9281912985679016e-03 2.9698267957427731e-02
      -1.7775129485336775e-02 -1.5938126592125454e-01
      6.3086222171434544e-02 -2.4652338757841451e-03
      7.2228039656619739e-02 7.9339469949046296e-02
      -6.1504079560867255e-03 -6.0956607014876860e-02
      -1.7743244390650173e-03 -4.2110180416166668e-02
      1.2084669156645002e-02 -3.7200007299347314e-03
      -2.8527497483521784e-02 -1.4886520675336436e-02
      -3.1598367567428924e-03 -1.2010129694873910e-01
      3.5844529556115262e-03 -2.2294220270995386e-02
      -3.9434443325975831e-03 1.6336681415527101e-02
      5.3867508220570215e-03 7.6258216500943887e-02
      5.1481610159311566e-03 -1.4477116602917098e-02
      9.5418191449550160e-02 5.9580693975702960e-02
      -4.5633859489995911e-02 -4.0335381414997172e-02
      2.3086281877295355e-02 -9.5106687467864534e-02
      -3.7950075474157401e-02 -4.4101456943512647e-03
      2.3163678270107568e-02 -6.5817379646452160e-03
      -1.4150782018753569e-01 -6.1935002836564744e-02
      -1.9226334309213389e-02 7.3706837120997806e-02
      3.6006847821417359e-02 3.8198641428852889e-02
      1.4484728014336383e-03 -8.8451048902261395e-02
      7.8306840599023965e-03 1.4847995508220902e-02
      7.9743919581008460e-03 5.6398310384175605e-03
      6.5901847519347245e-02 -2.6353935668094703e-02
      -7.9726163161293662e-02 6.1918933211211731e-02
      4.2389071195320926e-02 -6.1784280363659905e-02
      -9.4346126201350716e-02 5.1203116623604827e-02
      -1.4402539572506552e-02 -3.1780261589278873e-02
      -1.8882078557756501e-02 1.5072845934148753e-02
      2.7466193167366335e-03 3.0415661954412872e-02
      -9.7630175959965773e-03 2.9757687485687790e-02
      -4.5998385714413309e-02 1.2987819405467308e-02
      8.2910238725118213e-03 2.5911150435366917e-02
      5.8497109678614427e-02 1.2123750916326148e-02
      1.4920297483382536e-01 6.9618455513571834e-02
      5.1331334896070321e-02 -3.5303950123530639e-03
      -3.8251493245846854e-03 2.6530317886127863e-02
      1.6135230882112349e-03 -2.6241905018569725e-02
      1.8715951134862588e-02 7.7882312827750030e-02
      -3.3599858539500822e-02 9.6444596570368385e-02
      8.4358520707420365e-02 -9.4060564755819951e-03
      -7.6209601491543648e-04 1.0529055775399164e-01
      2.2383419961342556e-02 7.6109191833935302e-02
      2.8048477031951104e-02 4.1584257484600512e-02
      -8.5807064191700187e-05 -2.6054282765897434e-02
      1.8744166564956546e-03 9.3423267888642816e-02
      -2.0670849322725691e-02 -6.7577252843828220e-02
      -1.7745819281597089e-02 4.1301798989722194e-02
      -7.5240288507887861e-03 1.6215238973645080e-01
      -2.9890704482696734e-02 1.4319233952660973e-02
      1.2322281942805411e-02 2.5910714150597019e-02
      -5.5485703222139686e-02 -7.0093231565197464e-02
      -2.7399968852852424e-02 -8.7178585813950729e-02
      -1.4686207016966575e-02 -3.1850499137762868e-02
      -2.0306963716798073e-02 -4.0727458735964148e-03
      -4.1629438335825546e-02 -5.3694848339006292e-02
      1.2420585585869197e-02 -2.2486398586996130e-02
      8.6637959947644685e-02 6.9920576326122034e-03
      9.3545670334879788e-02 -2.3305379151598426e-02
      4.4327712093704494e-02 -4.3690859528786964e-02
      -4.9538292455092399e-02 8.4199859960610191e-02
      -1.5185651814808595e-04 8.1994563979341975e-02
      3.9847396869759119e-02 -3.8255801319102456e-03
      -3.5216184541096353e-02 -1.6910048497676713e-02
      1.5873246782773145e-02 -1.0460280903782535e-01
      7.0065584701123090e-02 -9.0717632103352076e-03
      1.0139620089222311e-01 1.0559900087200517e-01
      2.7209452319898755e-02 -1.2069211097925374e-02
      -1.6660451126680683e-02 -2.2207494463994640e-03
      5.5191266816305568e-02 -5.1186207281234762e-02
      -7.1336753488684360e-02 8.3821206513273166e-03
      -3.4665048961286180e-02 -7.5519674470996501e-02
      4.6507536844701713e-02 -1.4899841305880067e-02
      -2.3759237236030376e-03 1.3051963722559561e-02
      -3.5747834615121113e-02 8.5443506214885168e-02
      -1.2208307734809841e-02 -1.2189124946056895e-02
      1.2761261317990910e-01 1.0430745134892601e-01
      6.3000514342950141e-03 -9.0255750805410401e-02
      1.1928461321813555e-02 -5.0900424618836052e-02
      2.5188801594418088e-02 -9.5324279623286174e-03
      6.8460016259398945e-02 -4.1497208237695239e-02
      -1.1271752364039411e-01 -5.4281036114653305e-02
      -3.3419809880483463e-03 4.1662200587952190e-02
      9.3352008536418479e-02 5.0826171009250775e-03
      -3.9853743236320502e-02 -8.4280872634248896e-02
      4.4676020809502788e-02 1.2784849437990870e-02
      -3.4525474519919073e-03 -1.0867144383153705e-02
      3.9481807382230678e-02 -1.6727386019455233e-02
      -3.8519241863060223e-02 4.5062013028195007e-02
      3.5192221383187228e-02 -5.2202713655376813e-02
      -4.5157179791700287e-02 4.7316264349471358e-02
      4.7484567500571812e-03 2.3355655445143786e-02
      -4.8932903994062318e-03 1.9559500632399376e-02
      -1.1363545909748453e-02 -4.2220149969571371e-03
      1.1041388269100057e-02 -1.2768160779522806e-02
      -2.4002406428253673e-02 -2.0574952799560825e-03
      1.3960280176091083e-02 -2.3259422625006899e-02
      5.2424499767318604e-02 2.3157470721773966e-02
      7.5813591245763354e-02 3.3602036984112585e-02
      1.9677658847853691e-02 -6.0160012663451065e-03
      2.3433458663390867e-02 4.4544494456671692e-04
      -2.7643414672700675e-02 1.4192921528908803e-02
      7.9648387157036781e-04 3.0426122083691724e-02
      -3.8291332122598415e-02 9.5320557465868927e-02
      4.6356776406146626e-02 5.8240427388826588e-03
      2.5467455396984969e-02 7.0693844817455165e-02
      7.5235665048571064e-03 5.1407517849685974e-02
      6.4190514596224654e-04 1.0863112122982519e-02
      -4.5031514051602399e-03 2.8443290182373657e-03
      2.1734391302894528e-02 6.7431890148141535e-02
      7.6104548990066218e-03 -4.8030021193331322e-02
      2.7501687477806160e-02 1.5391826081660899e-02
      -5.5752498402176854e-03 1.1983178193341108e-01
      -4.7115612310259652e-02 1.6675271693370370e-02
      -1.8484373128265098e-02 1.8101780597552016e-02
      -1.6021322477418540e-03 -5.3222561797501837e-02
      1.0652034380773756e-02 -4.0056179610569953e-02
      1.0736157148981585e-02 -1.5966018278626728e-02
      3.6248467628949836e-02 4.5796398526363573e-02
      -5.5501474768215049e-02 -8.5794461513282988e-02
      -2.3930733693893376e-02 1.7765544262628004e-02
      5.0892851527698596e-02 -2.3081490263996918e-02
      9.8070603444347468e-02 1.2446478661090495e-02
      3.1018857651841638e-03 -1.8759433808602368e-02
      -1.5984434284789458e-02 1.3713760689310010e-02
      1.9620643156775624e-02 7.7750875339391290e-02
      3.3710790331364267e-02 -5.0302715691788523e-04
      -2.9287888650885826e-02 -4.5215273278969889e-02
      3.8008320769224939e-02 -1.9537555216671609e-02
      6.9801928423620291e-02 -2.0153087048506480e-02
      3.7225121605975173e-02 9.3490582853907267e-02
      3.1993052124644934e-02 1.3433789432163039e-04
      -1.4013764892139157e-02 2.3927975710429490e-02
      3.2649525710574591e-02 -3.2125415164459104e-02
      -5.7847476291446064e-02 -1.1655695928571082e-02
      -1.7161642172639290e-02 -5.2294122394357906e-02
      3.1105059796516270e-02 -3.3626932137155778e-02
      2.3250860241697056e-02 5.2101944963965554e-04
      -2.6179864374532673e-02 6.0434305032414697e-02
      -1.8835879597210566e-02 -1.8114404691403688e-02
      7.7879208107648798e-02 9.7392675077957375e-02
      2.0282688114682229e-02 -5.2166587120641962e-02
      1.8349510197908512e-02 -3.5474217841322840e-02
      5.0534963050896664e-02 7.9045978336503078e-03
      3.8259684869527633e-02 -3.8899982711076787e-02
      -5.2370381116618292e-02 -3.8930552631024372e-02
      -2.7832271371600294e-02 2.5196430945684474e-02
      4.5194741261055098e-02 2.4335284743800041e-02
      -2.5197068301532021e-02 1.2414156553676966e-03
      2.6175643734045004e-02 6.5022221584630863e-02
      -2.4303022317070347e-03 -4.0608043639145164e-02
      -5.1078769168936035e-02 2.5792991579575600e-03
      3.5325677322438256e-02 4.0161412898509982e-02
      -3.8739497242183264e-02 -7.2472327762120245e-02
      -2.7216819399747579e-02 -5.1055211646548013e-02
      -6.0959418435853549e-02 -4.6938130572287710e-03
      6.7403300216004880e-02 4.8601254847609347e-02
      2.2540426666224210e-02 -6.3309356639205686e-02
      -7.2862791014804390e-02 -5.5410625264513701e-02
      1.4666367994803821e-02 2.5119286820226758e-03
      -3.3665209386737296e-02 6.4150125242701431e-02
      4.9498040912900380e-02 -4.3052208447215107e-02
      -9.0486479415152511e-03 -3.3015275453928015e-03
      -4.1648759001334551e-02 1.7293994951757669e-03
      -8.5503763012663384e-03 -1.9048206634122412e-02
      -4.5032936967051372e-02 -3.2046943267331207e-02
      6.3334640278218973e-02 -2.5913200748154341e-02
      9.3642934572564177e-03 -2.2894840454189557e-02
      2.1410823574056306e-03 -2.9523334524996607e-02
      1.0202616002017165e-02 -1.8688719575694766e-02
      -5.7533103730401221e-02 -7.1743645571820001e-03
      -8.5410299683759447e-02 1.4041243920695482e-02
      -2.6340101803296777e-02 4.1637745862816537e-02
      -5.4275580804501476e-02 -6.4290568206167797e-02
      -2.4472936951825140e-02 -3.7545122776884071e-02
      3.4191714812479186e-02 5.4157167394247932e-02
      1.3910408398195609e-02 -1.0311152062672144e-02
      1.8469238060980966e-02 -1.6529027493143656e-02
      2.1589573747951368e-02 -4.2812323590606972e-02
      2.8187435611053028e-02 3.9118619782337660e-02
      -2.3847419589799215e-02 2.1222220866340166e-02
      -2.1185443275084551e-02 -9.9704705334383182e-03
      4.6913230982001286e-02 5.6604691880333548e-02
      -3.6026769641298279e-02 8.4390835337815176e-02
      3.1811870788268179e-02 2.1898239656829837e-03
      1.0190058177469654e-02 3.6926473943483633e-02
      -1.7073422956669131e-02 -2.1810244153559508e-02
      2.1479305433462183e-02 -5.2459119260691205e-03
      -3.9508729758301851e-02 1.2267979357623832e-02
      2.8820555220993419e-02 4.4477402382747187e-02
      1.2316450468146143e-02 -1.5741723592067006e-02
      -5.7045419171720062e-02 2.7727398862421187e-02
      -6.0117053021422603e-02 -4.2492567004550112e-02
      -4.9922479702969383e-02 -1.0599027254859615e-02
      -6.4392048475442693e-02 -6.0898653230191481e-02
      -2.4080884325593754e-02 4.5383839406849071e-02
      5.1612824567697939e-02 8.7876635445651146e-03
      -2.9808436454208168e-02 -1.3996537197824104e-02
      -1.6097590879589542e-02 -3.1656285791770711e-02
      2.8836153612974143e-02 -9.6872827748882943e-03
      -4.5931429561023987e-02 3.6136476272950885e-02
      -1.9820442936191271e-02 -1.2426648148136852e-03
      3.7364620078078378e-02 -3.3718070679941869e-02
      -3.6651387191060050e-02 -3.3039954837070444e-02
      -3.3802084122425489e-02 -2.5077135639778982e-03
      -1.3768750256067811e-02 3.7166750357097836e-02
      5.7128417119475285e-02 -2.4554726107143422e-02
      -1.8904731812678658e-02 -1.7200646053953182e-03
      1.0675343055305365e-02 -2.0986437144344221e-02
      -1.7993664940317098e-03 -2.3668250568601962e-02
      5.0191640339944310e-03 2.2566557547070400e-02
      1.9031832019907862e-02 3.4254111002728224e-02
      -3.7420251515262314e-02 -3.5156528296695265e-02
      -6.7192998860199082e-03 4.2703504704257426e-02
      -7.9109756841712356e-02 -2.0496587709344750e-02
      -3.6269927478335816e-02 4.0579340000920644e-02
      5.2916921168728176e-02 4.3672388260103667e-02
      1.1451154872959923e-02 -3.9529627716357110e-02
      5.4721651692815274e-03 -2.7457560884048306e-02
      -6.9270756080091533e-02 7.4687631242147919e-03
      8.8960994558943782e-02 1.3949441379885377e-02
      2.9085608998143338e-02 2.7193114014752123e-03
      -9.1784946791174118e-02 -6.6689166428429134e-02
      -2.5179494586300148e-02 1.6166739795513658e-02
      1.3782322347504837e-02 1.5134688752505086e-02
      1.7886007585844448e-02 1.5408349609656773e-02
      -5.8248260292342022e-02 3.4180235949548637e-02
      -5.6491201345256811e-03 5.0973539781381520e-02
      -2.7740168722646095e-02 -1.7663858165971384e-02
      -8.7541033739263363e-02 -2.6860557728973049e-03
      2.9277225386231849e-02 3.5061174523188431e-02
      4.0011264005501685e-04 -4.9852172409762335e-02
      4.5042737835571823e-03 -7.7040512231851535e-03
      -2.9455293313665365e-02 -1.2384853010649439e-03
      -2.8008489117219201e-02 -2.4631220096465935e-02
      -4.6998624980739812e-02 -4.6249379637453431e-02
      -4.7934562757311817e-02 3.9354684533406729e-02
      -5.5582123389748016e-02 -2.7951197089701101e-02
      -4.2133875288522527e-02 -2.3233675234020805e-02
      -3.6307024991062849e-03 4.7362457186254203e-02
      -5.1322239426454530e-03 -7.0775279254795181e-02
      2.1112577377124651e-02 -5.4951913406327386e-02
      3.9212220121273157e-02 -5.1795189202181749e-02
      2.0730075065089060e-02 5.2828065774823872e-02
      -3.4760181565910757e-02 2.7769750843812713e-02
      -4.6602743968649800e-03 -5.2582750886736133e-02
      6.6271523328512244e-02 3.5446056448020853e-02
      -1.5749729868899900e-02 1.8976910285133246e-02
      1.9922142502864070e-02 -1.4550177561348486e-02
      -8.4153515277091053e-03 3.8293150101482189e-02
      2.2659611640708979e-02 -4.1591942025916970e-02
      6.8942482012738102e-02 1.6475301327722132e-02
      -2.6177990879841347e-02 4.3135531156149086e-03
      3.3486704518755239e-02 4.7682317561611245e-02
      2.2432340282573481e-02 -2.1331200694779440e-02
      -3.5384999578869682e-02 -3.2307890824205772e-02
      -6.7145806956379256e-02 -2.1473250299985196e-03
      -2.9958151093654996e-02 -1.1243977093502775e-02
      -2.6838725097744511e-02 -3.3094694070232425e-02
      5.7431841020157519e-02 9.3507721838308466e-03
      2.6611117449185279e-02 3.5944745938736436e-02
      5.6813363342737557e-03 1.5838297725202819e-02
      -4.6499972421975455e-02 -2.0299469821226723e-02
      9.6393165040417339e-03 3.9835630449043757e-02
      -4.5162253204890292e-02 1.9577617019946203e-02
      1.9024138985738660e-02 -2.9038741989181844e-02
      4.4888287133525023e-02 -9.0463451281242602e-03
      -9.5788080417941276e-02 -9.2010247134617033e-03
      -4.1192416662359919e-02 -4.1081568935195246e-02
      1.1632750176728684e-02 1.2025641141825853e-01
      2.0572890659564982e-02 -3.1123474226293194e-02
      -2.0091937470086217e-02 2.2704280538295884e-02
      1.9405607243842212e-02 -1.4370827500377029e-02
      -2.1734803784823176e-02 -1.5593424317156806e-02
      2.6187555888091799e-02 6.3843666517254252e-03
      -2.6554995762949406e-02 -1.4825908021731032e-02
      -1.9666078512251942e-02 5.8052361373847054e-02
      -3.5414070607573636e-02 -1.5572180596167709e-02
      -4.3495978732698136e-02 2.2062150908980092e-02
      -3.9307066543959171e-02 -6.0445780871492029e-03
      3.3818991071025803e-02 -7.5320697124856714e-02
      1.9344722119854080e-02 1.2673577276794400e-02
      -1.7713653099972630e-02 1.1811186097999908e-02
      -6.0259828848796784e-02 -1.6264426497653358e-02
      3.6931135228782121e-03 2.5598315322499336e-02
      1.4421448569372200e-02 1.7681394429938161e-02
      -4.7626173288304777e-02 -2.2034762917512645e-02
      -1.1253159445712972e-02 3.8659645280747931e-02
      -2.1542861600685505e-02 1.7923889967568139e-02
      2.1168482697858551e-02 5.1484186202494205e-03
      -1.0424477840615536e-01 -1.6441656476088903e-02
      6.5636939190871116e-02 2.4899905567477912e-02
      -3.5530792364034149e-03 -7.4129791219794128e-02
      -5.6430607476404909e-02 -6.1600668823926681e-02
      1.4910109988727677e-02 4.3142933430992333e-03
      5.6468193204409017e-02 -3.6659165160460014e-02
      -4.0164429618656308e-03 -3.0994732432618473e-02
      3.6593811531037336e-02 -4.3965854842275082e-02
      -7.5702420864499409e-02 -2.9264625433439006e-02
      -6.2155586002714029e-02 3.0302471859511251e-02
      -1.9862633575894868e-02 -6.2260820518200580e-04
      -5.9030666090285977e-03 -7.0167648744221128e-02
      4.1791279752913718e-02 2.7480218361752278e-02
